nep4 6 C O H B Na Li 
cutoff 4 4 40 40
n_max 4 4
basis_size 8 8
l_max 4 2 0
ANN 30 0
  1.1906500e+00
 -3.3659618e+00
 -1.0070183e+00
 -5.0736233e-03
  1.5382164e+00
 -2.2278764e+00
  5.6684166e-01
 -4.4704382e-03
 -4.8935166e-01
 -1.0474901e-01
  5.7582927e-01
  2.4783330e+00
 -7.9933602e-01
 -1.4259590e+00
  1.6568159e+00
  4.1393963e-01
  3.4922200e-01
 -1.6758110e-01
  1.1954103e-01
  6.1292106e-01
  6.0773081e-01
  8.1626278e-01
  4.8129988e-01
 -1.1311020e+00
 -1.7945617e-01
  6.5661192e-01
  1.1992828e+00
 -3.4535372e-01
 -2.3945707e-03
 -7.4035877e-01
  9.4368728e-03
  7.9910821e-01
 -1.0947962e-03
 -4.3834835e-02
 -4.7474131e-02
  7.2468986e-04
 -7.1753580e-03
 -3.1615071e-02
 -8.7299747e-03
 -9.1417015e-02
 -3.4581821e-02
  2.1218450e-03
  1.3683451e-02
  2.0120434e-02
  5.0262816e-02
  5.5307712e-02
  2.7937792e-02
 -1.6967656e-02
 -1.8883506e-02
 -1.7725559e-02
 -5.4082517e-03
 -4.0875170e-02
  3.8282617e-03
 -1.5747439e-02
  2.1641815e-02
  4.3300956e-02
 -5.5279322e-02
  1.7105496e-02
 -8.4711472e-03
  3.7804771e-02
 -2.7086182e+00
  8.0711150e-01
  1.0816168e+00
  1.1324486e-01
 -3.4157071e-01
 -7.3855899e-02
 -2.1237448e-01
 -7.8107938e-02
 -1.9175340e+00
  2.8029880e-02
 -1.4723630e+00
 -1.0500840e-03
 -3.6448043e-02
  1.9496687e-02
 -3.0604459e-02
 -1.4843868e+00
  2.9973620e-01
  9.0311907e-05
  1.8076578e+00
 -8.2404029e-01
 -3.8809535e-01
 -1.2980057e-01
  1.1293130e-01
  1.0965569e-01
 -2.1678420e-02
  1.6760728e-01
 -1.6255589e-02
 -4.6204697e-02
  1.7671380e-02
  1.1246738e-01
  5.8387548e-01
  9.9237806e-01
 -7.1492374e-02
 -6.2320277e-02
  8.4165044e-02
  2.1086160e-02
 -1.8665406e-01
  2.5779272e-03
 -2.7563387e-01
 -4.1835648e-01
  2.4959335e-02
 -8.2189171e-03
  1.6915381e-02
 -6.2220328e-04
 -2.8007908e-03
 -3.5256499e-03
  3.9605375e-02
  2.1202249e-02
 -2.1163462e-02
 -1.4076116e-02
 -9.5368421e-01
 -3.8366995e-03
  4.2752448e-02
 -3.5281545e-03
 -7.6067835e-02
  3.7647281e-02
 -6.9219515e-02
 -2.4415096e-02
 -1.0143456e-01
  4.2255614e-02
  2.4844089e-03
 -2.7575059e-02
  2.9120150e-03
  1.5353597e-02
 -1.4392048e-02
  2.4427194e-02
 -2.5966322e-02
  6.5319508e-02
  4.6112407e-02
  1.3556577e-01
  5.9563885e-03
  6.0227185e-02
  3.5109058e-02
  6.9344356e-03
 -1.6584655e-02
 -2.8268171e-02
  1.3890058e-02
  1.2690464e-02
  2.7150558e-03
  3.0656390e-02
  7.9507791e-03
  9.1702705e-03
  8.9956768e-02
 -2.9370625e-02
 -3.9168980e-02
  5.9351153e-03
 -9.5790233e-03
 -3.7183009e-02
 -2.5262319e-02
 -2.2348937e-02
  1.8074694e+00
 -1.4093453e-01
 -1.9068292e+00
  2.1510584e+00
 -1.9396596e+00
  1.2290843e+00
 -1.3996793e-01
  1.0538290e-01
  1.7345438e+00
 -8.1743145e-01
 -2.4054384e+00
  2.0561069e-01
  5.7740676e-01
  5.3238505e-01
 -1.5020684e+00
 -9.6477741e-01
  1.5577966e+00
 -5.5557936e-01
  1.1474553e-01
  1.3491381e+00
  4.4734308e-01
  1.3958305e+00
 -3.1495325e-02
  8.3659327e-01
  1.7952658e-01
  2.6590931e+00
 -7.5906381e-02
  6.0771918e-01
  1.1721622e+00
 -3.2222292e-01
  6.3509475e-03
  1.7519175e-01
  5.0096367e-02
 -1.1889528e+00
 -5.0074047e-01
  9.9857850e-03
  6.8369287e-01
  2.0812336e-02
  1.1467926e-01
 -3.9956808e-01
 -2.0685663e-02
 -9.3502872e-02
  1.8211816e-02
  3.9382493e-03
 -9.0484256e-03
  2.0460004e-01
  1.7190250e-02
 -1.6954598e+00
  2.2804990e-01
 -2.1072130e+00
  8.4859304e-02
  3.4196454e-01
  9.9796308e-03
 -5.9082490e-01
  2.5520602e-01
 -3.7608232e-02
  2.7198887e-03
  2.7233046e-02
  7.2996259e-02
  5.9390109e-02
  4.0632361e-01
 -3.1849912e-01
 -9.4759390e-03
  1.4449680e+00
 -4.9372427e-02
  1.7082257e+00
  7.0845388e-02
  3.3428541e-01
  3.9888577e+00
 -4.9193371e-03
  1.5769525e+00
  1.5677822e+00
  3.0967388e-01
 -2.2938449e-02
  2.2621924e-02
 -2.6791957e-01
  8.2990617e-01
  2.0298574e+00
 -2.7527046e+00
 -1.8985076e-02
  3.4221744e-03
 -7.1550268e-01
 -2.3879766e-01
 -1.6531351e-01
  6.6591901e-01
  1.5065562e-02
 -5.8020335e-01
 -1.0510213e-02
  1.9759077e-01
 -1.4148782e-01
 -5.5311632e-01
  1.2204319e+00
  2.6967518e+00
 -3.1032845e-01
 -9.5963043e-01
  6.6624677e-01
 -3.1862897e-01
  7.1416516e-03
  1.7684568e+00
  8.0984138e-02
 -6.4529419e-01
 -1.1106541e-02
  6.4471102e-01
 -5.7703173e-01
  1.2005256e-02
 -1.1098825e-01
  8.5560307e-02
  4.2774472e-01
 -3.2406986e-01
  4.0262616e-01
  2.0731366e+00
 -4.6496126e-01
 -8.5769258e-03
  1.0801856e-02
 -1.2536138e+00
  2.1846980e-02
  5.9094884e-02
  4.3821577e-02
  1.4818065e-01
  1.5275697e-02
 -1.5841342e+00
 -1.1144711e+00
  6.1917168e-01
  1.6042528e+00
 -1.4785812e+00
 -1.4913598e+00
 -1.6104783e-01
  7.2193730e-01
  2.8138394e+00
 -1.3931260e+00
 -3.2942116e-01
  1.1114877e+00
 -1.9109601e+00
  1.1802646e+00
  2.7551526e-01
 -1.7573141e-02
  1.3581372e+00
 -5.5312533e-03
 -1.0159471e+00
 -5.8354056e-01
 -9.6720660e-01
 -4.5126122e-01
  5.7539737e-01
  9.8058772e-01
 -5.0406843e-01
  2.2175472e+00
 -5.4361294e-03
  1.7691697e-01
 -9.3515240e-02
 -4.3569702e-01
 -1.1121762e+00
  8.8966489e-03
 -1.0296658e-01
  3.0437684e-01
  4.6549267e-01
 -7.2352540e-01
 -4.9059114e-01
 -7.3077362e-03
  1.7584935e-01
 -7.1713845e-03
  9.5392382e-01
 -5.1756525e-01
 -6.6413686e-02
  1.0482794e+00
  1.9894063e-03
 -1.2245311e-02
  1.1147640e-02
  1.2097713e-01
  1.3732092e+00
 -1.0225444e-01
 -5.2624542e-01
  2.6359364e-01
 -7.8388872e-03
  5.9990889e-01
 -5.2774582e-02
  5.3389239e-01
 -5.0507660e-04
  1.2092657e-02
  4.4606987e-02
 -2.0190598e-01
 -1.7127196e+00
  1.0433149e+00
 -1.0233796e-01
  8.5190050e-02
  2.6396728e-01
  2.0275100e-01
  1.6968469e-01
  8.8866809e-03
  8.5368103e-01
 -2.0297119e-01
  8.8742083e-01
 -1.5782003e-01
  2.9818618e-01
 -6.3391477e-01
  9.1833514e-01
 -4.2834580e-01
  1.1711579e-01
 -1.0096904e+00
  1.1942403e+00
  1.5417355e-01
 -1.6042020e+00
  7.0206052e-01
 -3.4485421e-01
 -1.5240662e+00
 -4.6632037e-01
  1.0690465e+00
 -1.0489273e+00
 -6.4983539e-02
  1.0749435e+00
 -1.8761840e+00
  1.4572461e+00
  5.7234460e-01
 -1.5458943e+00
 -6.6947520e-01
  9.8581529e-01
  2.0258825e+00
 -4.9639055e-01
 -7.7915721e-02
 -7.2313529e-01
  3.4990078e-01
  1.8830063e+00
  2.5553605e-01
  2.5325286e+00
 -9.0044159e-01
 -7.0015943e-01
 -1.1930920e+00
  3.6916917e-03
  2.1644399e+00
  7.8323948e-01
  6.7830676e-01
 -5.6090701e-01
  8.3043277e-01
  2.4343829e+00
  1.3185993e+00
 -1.0778296e+00
  1.1680421e-01
  5.8044487e-01
 -1.2684538e+00
  7.8757010e-02
  8.0390852e-03
  2.0155709e+00
 -7.6707220e-01
 -9.5863932e-01
  1.0670722e+00
  2.8117272e-01
  6.3161594e-01
  3.3294547e-01
  7.1444374e-01
 -2.7931374e-01
  1.1268185e+00
 -5.2285844e-01
  2.4311814e-01
 -3.3090634e-03
 -4.8355016e-01
  6.3482854e-03
  2.4772158e-01
  4.5853667e-03
 -1.3337802e+00
 -2.5120378e-01
 -2.0542974e+00
  6.8554282e-02
  7.4164903e-01
 -5.8000851e-01
 -8.0880827e-01
 -2.7022651e-01
 -1.3580751e+00
  3.7742790e-02
  8.5192481e-03
 -1.6849343e-01
  2.4263768e+00
  3.7859058e-01
  1.2035857e+00
  9.7817212e-01
 -8.3750105e-01
 -1.9076512e+00
  1.3904465e-02
 -1.5831447e+00
  8.1048207e-03
  2.7243125e+00
 -3.1114471e-01
  1.1583462e-01
  1.0556252e+00
 -1.4109586e+00
  6.0786265e-01
  3.6219755e-01
  1.7909781e+00
  5.1028275e-01
 -3.8785412e+00
 -1.7805420e-01
 -2.1290343e-01
 -1.7231840e-01
  8.6632751e-02
  4.8062328e-01
 -8.4183156e-01
  1.1476095e+00
  1.7101423e-01
 -8.5335324e-04
 -4.6712281e-03
 -9.8465949e-02
  1.1722424e-02
 -1.0370938e+00
  7.0937842e-01
 -2.0891898e+00
 -9.8960750e-02
 -6.4517087e-01
  1.3580661e+00
  1.6193491e+00
  7.3546418e-03
 -1.5736214e+00
 -1.2970304e+00
  9.6576691e-02
 -3.3593446e-02
  3.1070316e-03
 -1.4148121e+00
 -1.5305419e+00
  2.2491610e+00
  1.6724473e+00
  2.0060022e+00
  1.3149220e+00
  2.3407305e-02
  3.1255764e-01
  1.0797060e+00
  8.4656090e-01
 -9.5184945e-02
  2.9268807e-01
  1.0492024e+00
  2.4770973e-03
  2.6542954e-02
  7.8537649e-01
 -4.1101689e+00
  2.6279837e-01
  8.4050900e-01
  2.6345849e-01
  1.1234376e+00
  6.6670537e-02
 -3.1985261e-02
 -1.3969200e+00
 -4.9893912e-03
 -1.1651333e-01
  7.1726710e-02
  1.4855988e-01
  8.8602845e-03
 -1.4251603e-04
 -3.1596575e+00
 -1.0626473e-02
 -1.0931662e+00
 -9.5430743e-03
  2.9579245e-02
 -5.1505834e-02
 -3.8420105e-01
 -1.0053048e-01
  6.8452512e-03
  4.2928653e-03
 -2.3557223e-02
 -4.0283538e-02
 -4.3676883e-02
  1.9685419e-02
  1.8809633e-03
  3.0106452e-01
 -3.7581373e-02
 -1.7241172e-01
 -1.1334735e+00
  1.7194930e+00
 -1.7945832e+00
 -1.5165523e+00
  1.4179817e-01
 -7.0374984e-01
 -5.7324381e-03
 -1.0620598e+00
 -2.4670360e+00
  7.6704991e-01
 -3.2041052e-01
  1.1894195e-01
  2.1455422e-01
  9.7164619e-01
 -2.5484642e-01
 -1.2578578e-01
  3.5097772e-01
 -8.6562365e-01
 -1.6240269e+00
 -3.6003705e-02
 -2.0911755e-02
 -8.6137563e-02
 -1.8094675e-01
  1.0657094e-01
  9.1000414e-01
  1.5359154e-02
  3.0634995e-03
  1.4677706e+00
 -1.0774035e+00
  5.2066296e-01
 -7.0422911e-03
 -1.0358946e+00
 -2.5964478e-01
  4.1622531e-01
 -4.2787423e+00
 -6.1900306e-01
 -3.5895976e-01
  4.5561069e-03
  1.1336002e+00
  1.4132996e+00
 -1.4093605e-01
 -2.7767298e-01
  4.8702490e-01
 -1.5936159e+00
 -6.8449819e-01
 -1.2282144e+00
  3.7671953e-01
 -1.0534253e-01
 -9.9035436e-01
  2.2193725e+00
 -1.4912286e-01
 -3.0781251e-01
  1.2175884e+00
 -2.5282245e-02
 -1.3423643e+00
 -5.0783895e-02
  1.3412900e+00
  7.0257485e-01
 -1.4022268e+00
  1.1710910e-02
 -2.5393115e-03
  1.2273545e-02
  5.9141576e-02
  1.2284885e-02
  2.3420982e-03
 -2.4390014e-02
  3.9768822e-02
  8.1032634e-02
 -8.3561114e-04
  7.8662243e-03
 -5.2997630e-02
  4.6947766e-03
 -1.0325144e-02
 -2.7430490e-02
  9.6418366e-02
  5.8480974e-02
  2.3141779e-02
  6.0960313e-04
 -4.0160052e-02
  1.9491151e-02
 -1.3733887e-02
  3.4911267e-02
  1.8738836e-02
  2.0046785e-02
  7.5541805e-03
 -1.1488896e-02
 -1.0453342e-02
 -3.8001162e-03
 -7.1599375e-04
  2.3657043e+00
 -9.4134450e-02
 -2.7297997e+00
  8.6924422e-01
  2.8627555e+00
 -1.4318658e-01
  4.3299310e-02
  7.2126943e-01
  1.1928638e+00
  8.3004737e-01
 -2.5226662e+00
 -2.8981984e+00
  1.7535431e+00
 -2.3607327e-01
  1.5528534e-01
 -1.8860863e+00
 -4.9336371e-01
  6.2474054e-01
  3.8847455e-03
  8.7784693e-02
 -3.0148673e-01
 -1.2212836e+00
  2.0859447e-01
  6.5751624e-01
  2.3037369e+00
 -7.1419626e-01
  4.1702673e-02
 -3.7306335e-02
 -1.1094457e+00
 -4.2439637e-01
 -1.3281858e+00
  3.3455440e-01
  1.7810862e+00
  2.3872256e+00
  2.7328777e+00
  9.7758257e-01
 -1.1631488e+00
  1.1002636e+00
  7.0081943e-01
  4.5936614e-02
  2.4273977e+00
 -6.3204890e-01
  1.3577909e+00
  5.1141012e-01
  1.5362867e+00
 -1.3146317e+00
  2.9850015e-01
 -6.2091130e-01
 -5.1521957e-01
  2.4027851e+00
  3.1056857e-01
 -6.2048978e-01
 -1.4899261e+00
  1.7749405e+00
 -1.2481437e+00
  6.4113837e-01
 -1.0524307e+00
 -4.0894341e-01
 -1.9475173e+00
  2.8402297e-02
  2.2674367e+00
 -1.9108425e+00
  1.2780770e+00
  2.2117693e+00
  2.5545871e+00
  1.1512665e+00
 -2.2831461e-01
  2.8228168e+00
 -5.2623832e-01
  1.9788659e-01
 -5.4908061e-01
 -1.3464399e-02
  2.6786232e+00
 -6.7975062e-01
  4.9933198e-01
  3.4622610e+00
  1.9286241e-02
  1.1678827e+00
  4.8372909e-01
 -1.7310925e+00
  8.5252613e-02
 -3.9984080e-01
  2.5727265e+00
  5.2181685e-01
  1.0202771e-01
 -8.8234514e-01
 -7.0026457e-02
  2.6349904e-02
 -8.3005571e-01
 -1.8475477e-01
 -3.9782506e-01
  3.5629205e-03
  1.9231057e-02
  8.0337644e-02
  7.2643840e-01
  3.0734761e-02
  1.0575422e-04
 -9.7189039e-02
  6.4419188e-02
  3.5009474e-02
 -1.6209747e-01
  6.4539880e-02
  1.5943363e-02
 -2.4904450e-03
  6.5451497e-03
  5.3412449e-01
  1.6497783e-02
  5.3528734e-02
  1.6608971e-01
  5.6456611e-02
 -5.0459532e-03
  1.8665846e-02
 -3.2452624e-02
 -5.4982251e-01
 -1.7923967e-03
  7.0762508e-02
 -1.5042257e-02
 -3.8554107e-03
 -2.7501889e-02
  5.3904708e-03
 -2.6956018e-02
 -5.4113358e-02
  9.3066907e-03
 -1.4553373e-03
 -1.9630225e-02
  1.9514238e-02
  3.1080509e-02
 -3.0728582e-02
  1.3081366e-02
 -9.4245579e-03
  2.5022984e-01
 -1.3955822e-02
 -1.0071564e-02
  1.3016768e-03
  3.5907819e-03
 -2.7813952e-02
 -7.8080557e-02
 -2.1039132e-02
  2.0502929e-02
 -1.9253915e-02
 -2.4698736e-02
 -4.5996170e-02
 -1.8571220e-02
  1.8137353e-02
  5.8541786e-02
  1.9496093e-02
 -1.8077878e-02
  2.8448254e-03
  1.3142765e-02
 -3.9701901e-02
  2.0593414e+00
 -5.5089718e-01
  5.7512701e-01
 -1.0576842e+00
  3.4621596e-01
 -1.1435622e+00
  3.1928871e-02
 -2.5178692e+00
 -8.2846627e-02
  4.7868188e-02
 -9.9827051e-02
  6.0391456e-01
 -7.4654341e-01
  4.9151802e-01
 -1.0255507e+00
  3.5093328e-01
 -1.6808652e+00
 -1.0971278e+00
 -2.5485283e-01
 -4.4880596e-01
 -1.7636764e+00
 -1.1903048e+00
  4.1319403e-01
 -1.7426032e+00
 -2.9674876e-01
 -8.9633852e-01
  5.3831483e-03
  8.5364707e-02
 -1.0500829e+00
  1.0245264e+00
  6.7227197e-01
 -4.9466187e-01
 -1.7425500e-01
 -9.6793473e-01
 -1.3923138e+00
 -1.1570141e-01
 -6.6496380e-02
 -1.5834309e-02
 -1.8683827e+00
  1.7229789e+00
 -1.8396138e-01
 -1.5366591e+00
 -7.5789815e-01
 -1.7466313e+00
  1.1805242e+00
  3.3332360e-01
 -2.1003771e+00
  1.2191918e+00
  2.2416238e-01
  6.2660769e-02
  2.6909521e+00
 -1.0557038e+00
 -2.9329938e-01
  6.4058256e-01
 -1.3217809e+00
  1.3360600e-01
 -4.4158832e-03
 -4.6890777e-02
  2.5624040e-01
  2.9258731e-01
  2.1084211e+00
  2.5615723e+00
 -1.1173971e+00
 -4.5407847e-01
 -7.7072242e-03
  8.7694600e-03
 -2.4639542e-01
  2.1509535e-03
  1.4786675e+00
  4.6799425e-02
 -1.3735667e+00
  7.7363467e-01
  3.4555808e-02
 -5.2998585e-01
 -3.1184927e-01
 -3.3880967e-01
  5.8306539e-01
 -1.3141221e-01
 -7.8284770e-01
 -2.4202833e+00
  1.0787457e+00
 -2.1657275e-01
  2.1205217e-02
 -2.6009178e-01
  1.6966120e+00
 -1.1849296e+00
  2.1712255e-02
 -5.2792076e-02
 -2.7218655e-01
  4.3267149e-01
 -5.4998034e-01
  8.2522653e-02
 -1.7115967e+00
  2.9463252e-01
 -9.1227502e-01
 -3.5514852e-01
 -1.4591272e-02
  1.6653309e-02
 -1.0018200e-01
  1.3593168e+00
  2.1642866e+00
  4.2670961e-02
  6.4480184e-03
  2.1357036e-01
 -6.6288160e-03
  4.5495983e-02
 -9.9742457e-02
 -1.1858138e-01
  4.4423628e-01
 -2.8366342e-02
 -2.2145720e+00
  2.5675073e-01
  2.4390863e-02
 -1.7073671e+00
 -1.3998727e+00
  2.8763456e-02
  2.8626448e-02
  3.0773042e-03
 -7.2284788e-03
 -1.5898336e-02
 -1.3636691e-02
 -1.4628300e-01
 -4.1826084e-01
 -1.5956725e+00
  4.0062945e-02
  1.5234211e-02
  2.7761358e-01
  1.3066631e-02
 -2.0814255e-01
 -4.3260148e-01
 -8.2130125e-03
 -5.0730143e-02
  3.3088669e-02
 -7.4508792e-01
  1.3848363e-02
 -5.7094413e-01
  4.4892249e-01
  8.3213463e-02
 -6.5697348e-01
 -1.0966464e+00
 -1.3504215e+00
  1.1850205e-01
 -7.4706040e-02
  8.3760329e-02
 -8.0748816e-04
 -3.2869443e-02
  1.6838389e-02
 -6.7070127e-02
  3.4238186e-02
 -6.6361399e-03
 -6.6901523e-01
  3.6431622e-02
  5.4895306e-01
 -5.7685684e-02
  2.3246012e+00
  7.3099099e-02
 -7.0077854e-01
 -6.3280350e-01
 -4.7540169e-02
  2.8443351e-01
 -2.2686217e-02
  9.1278386e-01
  7.2534519e-01
 -2.0753540e-01
 -5.6059271e-01
 -6.5799761e-01
 -1.4586649e+00
  1.1403410e+00
  6.4931071e-01
 -3.8115743e-01
  8.8310552e-01
  6.1265099e-01
  8.9878595e-01
  4.3200445e-01
 -1.9191301e+00
 -2.4620121e+00
  1.0501046e+00
 -4.5026392e-01
 -3.4937957e-01
 -1.4857427e+00
  1.2596978e+00
 -2.9405328e-02
 -5.0202829e-01
 -8.9569919e-02
  1.5617191e+00
 -1.3440037e+00
 -5.6620002e-01
  8.3707350e-01
  4.8095393e-01
 -1.5447202e+00
 -5.2083462e-01
  9.3195421e-01
  4.2363920e+00
  1.1998262e+00
 -1.4265795e+00
 -1.4348845e+00
 -2.0007807e-01
  6.0133904e-01
 -1.1856960e+00
 -1.8106477e-01
  2.6311016e+00
  1.2290682e+00
  8.2692015e-01
 -3.3586350e-01
  6.8441868e-01
 -2.8377697e+00
 -1.1895595e+00
  4.3436295e-01
 -2.7760303e-01
 -1.4946833e+00
  5.7634932e-01
  9.1366035e-01
 -7.6542759e-01
 -3.5717852e-02
 -1.2847947e-01
 -2.4599065e-03
 -6.7596060e-01
  1.0140045e-02
 -1.6923039e-01
  1.6142262e+00
 -8.4914258e-03
 -5.0388175e-01
 -4.2934567e-02
  4.7677441e-04
  2.3593931e-01
  5.0233360e-02
  1.9637643e-01
  1.6737316e-02
  4.5994971e-02
 -2.5100684e-01
  7.0390120e-02
  2.0993313e-01
 -2.2734867e-02
 -3.4386194e-01
  2.0813695e-03
 -6.1937824e-02
  5.4378402e-03
  2.8468955e-02
 -2.5350386e-02
 -7.3601054e-03
  2.5163027e-02
  5.3515952e-02
  1.0331244e-02
  2.9692421e-02
  4.8358906e-02
 -3.6193021e-02
 -4.5257439e-03
  3.0272359e-02
 -7.9425626e-02
 -8.5898518e-04
 -4.3591680e-03
  2.3075877e-01
 -3.6622636e-02
 -8.3068535e-03
  1.6478492e-02
  2.7802020e-02
  7.3331995e-03
 -1.7148213e-02
 -6.6270311e-03
 -1.4516962e-01
  1.5909640e-02
 -3.5415817e-02
 -2.6814649e-02
  1.7103167e-03
  2.1816788e-02
 -5.1644631e-03
 -2.5609612e-02
  1.0066252e-02
  6.5227109e-03
  1.4302811e-03
  1.6052052e+00
  1.2165091e+00
 -1.9792365e-01
 -1.3645871e+00
 -1.4111996e-01
 -3.1050041e-02
 -2.0125270e-02
  2.1261254e-01
 -1.9665796e-01
  2.0774686e-01
 -2.1786682e-01
 -1.4420862e-01
 -9.4667032e-02
  6.6676714e-02
  3.5447365e-01
  3.5932964e-01
  7.3327827e-01
  4.9920220e-02
 -1.1922412e-02
  1.0919209e-01
  4.9504977e-01
  1.0185680e-01
  3.8447035e-03
  9.8641608e-03
  5.2093738e-01
  1.3649376e-01
  6.0892165e-02
  5.9511289e-03
 -6.5951957e-04
  1.6090607e-02
 -2.4310196e-02
 -4.8183870e-01
  1.0966586e-01
  2.8270340e-01
  3.9060855e-01
  6.3348018e-02
  4.3136798e-02
  1.1488586e-03
 -4.6600506e-02
 -6.4895675e-03
 -7.9528876e-03
  2.7239518e-02
 -1.3956417e-01
  4.8561292e-03
 -1.5284333e-02
 -5.7070099e-02
 -4.4912532e-02
 -1.8727794e-02
 -4.7410991e-02
  1.3340507e-02
 -1.3211961e-02
 -2.6725359e-02
 -2.3995547e-02
  3.6530606e-02
 -6.2224500e-02
  5.7843588e-02
  1.0158257e-02
  3.5579577e-02
 -7.2420336e-02
  5.8753081e-02
 -1.4251849e-01
 -3.0123660e-01
  3.5830897e-01
  1.6879067e-01
  1.9992822e-01
 -2.1645688e-03
 -1.9942086e-02
  3.4155175e-02
  6.4991757e-02
 -5.4621454e-02
  4.2783681e-02
  8.7914668e-02
 -5.5855755e-02
 -7.5826578e-02
 -5.6308303e-02
 -4.7287118e-02
 -1.4673577e-02
 -2.8767385e-02
 -4.6225283e-02
 -9.2317514e-02
 -2.6956195e-01
  8.4469110e-02
 -3.6234602e-02
 -5.5873101e-03
 -1.8971384e-02
 -2.4589114e-02
 -5.4665200e-02
 -3.8801860e-02
 -4.4198856e-03
  3.0136760e-02
 -1.6615466e+00
  2.5850797e-01
 -2.2175307e+00
 -1.8027748e+00
 -6.5963894e-01
 -5.6473661e-04
 -2.9259039e-02
 -2.6910968e-02
 -2.8046066e-01
  1.9685626e-01
 -2.4139984e-02
 -8.7714627e-02
  1.9299506e-01
 -1.0762026e-02
  2.6309290e-03
  1.8423958e-02
  6.4864911e-02
  1.1253469e+00
 -1.2270968e-01
  4.2437673e-02
  2.8779134e-02
 -1.3844712e-01
  4.7790933e-02
  2.9797379e-02
  7.8931890e-02
  3.7618033e-03
 -1.0275569e-02
  1.2253098e+00
 -3.1433385e-02
 -1.9580482e-02
  5.9959300e-02
  1.0962015e+00
 -6.1793119e-01
  3.3199396e-02
 -3.6650622e-01
 -1.3471930e+00
  1.1091294e-02
  5.3087793e-02
 -4.4550616e-01
 -3.3094808e-03
  1.5668461e-02
 -2.2972906e-02
  9.8199341e-03
 -1.2941860e-02
  7.8768454e-02
  6.6078617e-04
  1.1631258e-02
  6.3718599e-03
  4.4537284e-03
  1.5656136e-03
  3.4437075e-02
  2.4353284e-02
 -2.6545122e-02
 -1.4991553e-02
  3.6252383e-02
  1.4186398e-02
 -4.8712078e-03
  2.9618165e-02
  3.1908900e-02
  1.4520644e-01
  1.8830201e-01
  5.2303910e-01
 -3.6461005e-01
 -4.3349993e-01
 -1.6794898e-01
 -4.7392786e-02
  2.0094515e-01
  6.9443882e-03
 -5.7177085e-01
 -2.2797266e-02
 -1.1337085e-01
 -1.2813250e+00
  3.5924464e-01
  3.7670474e-02
  5.6501371e-01
  4.7641122e-01
  7.0683223e-01
  9.5106266e-02
 -7.0642278e-02
  6.5543336e-01
  3.8983470e-01
 -1.1507965e-01
 -2.6195824e-02
 -9.3542740e-02
  1.2617685e-01
  1.4880592e-02
  2.9643711e-02
 -2.1444153e-02
  4.6208102e-02
  4.4423766e-02
  8.3940268e-02
  3.0975226e-01
 -6.7915207e-01
 -6.5138824e-02
 -2.5158560e-01
  2.0136768e-03
 -6.2039137e-02
  1.7594710e-02
 -1.4772744e-01
  8.2383305e-03
 -1.2797696e-03
 -5.9385698e-02
  3.1737007e-02
  1.9003088e-02
  2.0555526e-01
  1.7355959e-01
  1.6499835e-01
 -1.7567132e-02
 -7.2545201e-02
  9.8644376e-02
  3.9678380e-02
 -9.5967343e-03
  1.7348383e-01
 -3.4757473e-02
  1.5592023e-02
 -3.3734251e-02
 -2.1850774e-03
  2.2574898e-03
 -2.8844470e-02
  7.4788213e-02
  2.9755804e-01
 -8.9729208e-01
 -6.0888541e-01
  5.0959516e-01
  2.3060760e-01
  3.0416740e-02
 -1.1786015e-02
 -4.5985898e-01
  1.2839510e-02
  3.5865474e-01
  1.2497069e-02
  1.1158475e-01
 -1.8687567e-02
 -8.1415370e-02
 -5.0353713e-02
 -6.6533595e-02
 -4.7709239e-01
 -6.9710171e-01
 -3.8615221e-01
  4.7766354e-02
 -1.6240709e-01
  1.1312282e-01
  3.5449534e-03
  3.5994042e-02
 -2.8338445e-02
  1.8474674e-02
 -2.7033038e-02
 -1.0913555e-01
  1.3919656e-02
 -3.2497808e-02
 -1.8767935e-01
 -2.3283705e-02
  1.6999994e-01
  2.8442445e-01
  1.8845499e-01
 -2.9191994e-03
 -4.8245941e-03
  1.5036780e-02
 -3.8898218e-01
  1.2375232e-03
  5.2795638e-03
  3.4656592e-02
 -1.5182769e-02
  4.0137719e-02
 -6.8638511e-02
 -1.6616797e-02
 -1.7340276e-01
 -1.9933490e-01
 -9.3134493e-03
 -1.0897262e-02
 -8.3030030e-02
  1.1803123e-01
  2.8632168e-02
  8.4971236e-03
 -3.0893595e-03
 -5.2697454e-02
  1.9786637e-02
  2.6225531e-02
 -8.8008429e-04
  1.2693001e-02
 -4.9147141e-01
  7.0508975e-01
 -3.4318343e-01
  1.8789904e-01
  8.0467626e-02
  3.6023874e-03
  6.2390715e-01
  1.1542513e+00
 -1.6764280e-01
  9.8150033e-01
 -1.2140058e-02
 -8.3872193e-01
  3.7751600e-01
  5.1647085e-01
  8.1365412e-01
  5.5733997e-01
  2.6417217e-01
  4.7049999e-01
 -3.6305752e-02
  4.8029795e-03
  1.2435511e-01
 -5.1997781e-01
  8.2871431e-01
  3.5540547e-02
 -4.6400715e-02
  3.6653247e-02
  2.0772174e-02
 -5.4583024e-02
 -2.0532722e-02
  1.0712549e-02
  8.0522168e-03
  1.3925024e+00
  3.3225469e-02
 -1.5977359e-01
  8.4553184e-03
 -5.0097678e-02
 -5.7451908e-02
 -1.1398875e-01
 -9.2435395e-03
  5.4890485e-03
  3.1761124e-03
 -2.9355675e-02
  4.2994037e-01
  2.1034030e-02
 -3.5574476e-03
 -3.4018683e-03
  3.5020519e-02
 -1.6997363e-01
 -3.9235326e-03
 -4.8418395e-02
  7.3591366e-02
 -3.6829200e-01
 -2.0430820e-02
 -6.1794437e-02
  8.6414978e-02
  4.7475185e-02
  3.1172300e-02
 -2.6476050e-02
  1.9232688e-03
 -1.1107229e-01
 -1.8969629e+00
  5.4930425e-01
  2.4213808e+00
 -1.0263202e+00
  1.7190069e+00
 -7.2614029e-03
  4.5412682e-02
 -2.5315642e-01
  2.9575911e-01
  2.6184440e-02
  3.1645596e-02
  4.3471894e-01
 -1.0824883e-01
 -9.1055304e-02
 -2.4750414e+00
 -2.6177708e-02
 -6.7010623e-01
 -4.0212789e-01
  8.9709796e-02
 -8.8542961e-03
 -1.0118067e+00
  1.0858987e-02
  4.6415318e-02
 -4.1164032e-01
 -1.2818445e-02
 -1.5196295e-02
  3.0531069e-02
  1.6187342e-03
  1.9502610e-02
 -7.3945746e-03
 -5.6724314e-02
 -8.4040582e-02
  6.3138321e-02
  5.3713471e-03
  9.1492217e-03
 -6.4647712e-02
  6.5260530e-02
 -3.4469453e-01
 -3.6029442e-04
 -2.7838767e-01
  1.1891471e-02
  4.0150512e-02
 -2.4908748e-03
 -1.3204385e-02
  3.3700626e-02
 -9.0904860e-03
 -1.0757321e-01
  7.7278027e-03
 -2.6947828e-02
  4.3763779e-03
 -7.9462640e-02
  3.7959896e-03
 -1.3417862e-02
  8.9073084e-02
 -1.1471673e-02
 -4.5221276e-03
 -4.8271725e-03
  3.5642277e-02
 -4.7791912e-03
  8.8530183e-02
 -8.1444454e-01
 -1.2160565e-02
 -1.0953197e-01
  1.2850084e+00
  7.8212190e-01
  3.1152866e-03
  3.2144446e-02
  1.8718264e-03
  7.5214200e-02
 -1.9640766e-02
  3.7189677e-02
  1.6699651e-01
 -2.0752681e-02
  3.4040395e-02
 -1.1282916e-01
 -2.2900940e-01
 -4.2725506e-01
  2.5379589e-01
  8.2471035e-02
  7.9217870e-03
 -3.7521070e-01
  3.7537424e-03
  1.6251948e-01
  9.2017017e-03
  1.4239159e-02
  8.1015602e-03
 -6.7161180e-02
 -8.6915866e-02
 -1.4972008e-03
 -5.6221355e-02
  9.4640210e-02
 -6.7605481e-02
 -4.8125431e-02
  1.2101440e+00
  9.7784328e-01
  1.0059667e+00
 -8.7376118e-01
 -2.1932709e-01
  8.1408906e-01
 -2.3961306e+00
  6.8139267e-01
  4.0364292e-01
 -7.5106412e-01
 -6.9243407e-01
 -1.2803072e+00
 -1.1710476e+00
 -1.2769927e+00
  4.9152291e-01
  6.1341673e-01
 -1.3749786e-01
 -2.0030710e-01
 -9.1519165e-01
 -1.0612291e-01
  2.7479029e-01
 -4.3196589e-01
 -4.0624430e-03
  3.3305522e-02
  1.2546140e+00
  2.3040182e-03
  2.1616986e-03
  7.6789415e-01
 -2.6609631e+00
  1.6723844e+00
 -2.0110588e+00
 -2.0116003e+00
 -1.0218458e-01
  2.3957323e-02
 -4.9283829e-01
 -5.9356856e-01
  3.6776093e-01
 -3.6553711e-01
 -3.4658307e-01
  2.8163521e-02
 -2.0550482e-03
  1.6162048e-01
  2.0442972e-01
 -6.7628306e-01
 -1.5293044e-01
 -1.1019849e+00
  2.1826837e-02
 -3.6198415e-02
  2.8909491e-03
 -8.8144928e-01
 -5.6411803e-01
  2.9841629e-01
 -3.8580306e-02
  2.4166871e-02
 -6.8937154e-03
  8.8992886e-02
 -1.3348634e-02
 -2.5065824e-01
  6.4151800e-01
  5.0137907e-01
 -1.7404493e-02
  1.2806618e-01
  1.3549342e-02
  2.4905186e-02
 -3.2468142e-03
 -5.2940222e-03
 -1.4788680e-01
  5.5149488e-02
  1.6130453e-02
  1.9014858e-02
 -1.2412012e-02
 -6.4769715e-02
 -6.0427222e-02
 -2.5043568e-02
 -1.7279441e-02
 -1.3519052e-02
 -8.7861838e-03
 -7.5991496e-02
 -1.2828280e+00
  8.9188510e-01
 -1.7024990e-02
 -3.0574204e-02
  9.3881273e-01
 -2.4269520e-04
  8.8360514e-03
  5.8534243e-03
 -2.2927790e-03
  1.5595075e-01
  3.6164519e-01
 -8.2062310e-01
 -3.2542393e-01
 -5.7543868e-01
  9.4130505e-03
 -6.6983998e-02
  9.8867521e-02
  2.7538003e-02
 -1.6799365e-01
 -2.9509994e-03
 -1.8349109e-02
 -2.1331504e-03
 -3.5027888e-02
  3.9888835e-03
 -3.2681492e-03
 -2.7188301e-02
  2.7642017e-02
  2.1889929e-02
 -2.7371212e-03
  1.8551253e-01
 -8.6161546e-02
 -5.2634937e-01
  1.5147603e-02
 -3.0856989e-02
  1.0979817e-02
 -4.0763528e-03
  8.6613735e-03
 -2.1593494e-02
 -1.9731533e-02
  3.9616004e-02
  1.0113164e-01
 -2.3719699e-03
 -2.3468256e-01
 -5.7496607e-01
 -2.4261627e+00
 -1.9407147e-01
  6.4038993e-03
 -8.6726099e-02
  6.8844393e-02
  8.9885518e-02
 -1.3454109e-01
  1.9766336e-02
  5.3064455e-03
  5.9903264e-02
  4.4760159e-03
  9.7543247e-02
  2.0783940e-02
 -3.2709891e-03
 -5.3718075e-02
  1.4102431e-02
  2.5602728e-02
 -2.7173606e-03
  1.3861047e-01
  4.8045758e-03
  5.8869929e-03
  3.1148804e-02
 -1.6913939e-02
  1.0359010e-02
 -8.8880286e-03
  1.1901405e-01
  1.9217068e-01
 -3.6282057e-01
 -5.9911466e-01
 -4.6990430e-01
 -5.7380468e-02
 -1.0685992e-02
  1.9337818e-03
 -4.4765351e-03
  1.2048770e-01
 -1.3351846e-02
  1.2616197e-02
  3.0914845e-02
  6.2379263e-02
  4.5729745e-02
 -7.7993153e-03
  7.3201701e-02
  1.2399781e-02
 -9.0335049e-02
  5.2158587e-02
  2.5973383e-02
 -3.1340992e-01
 -2.9096296e-02
 -6.8195507e-02
  1.3013425e-01
 -1.5683044e-02
 -7.4528438e-01
 -1.4779713e-03
  2.3308208e-02
  3.7134513e-02
  7.6718777e-02
  5.7050516e-03
  2.0930720e-02
  1.2357406e-02
 -6.3833540e-05
 -3.1921469e-02
  2.3830863e-02
 -6.4373203e-03
  1.9849825e-03
  2.4625337e-02
  5.7220845e-03
  5.3296909e-02
  3.4277453e-03
  6.0858481e-02
  3.0496681e-02
 -1.0697981e-03
  1.2458189e-02
  2.8756969e-03
 -4.4595055e-02
  4.8513643e-02
  1.0804439e-02
  9.0358267e-03
  8.9063626e-03
 -4.5460728e-03
  1.7968759e-02
  1.3079052e-02
 -1.4321776e-02
 -4.3291651e-02
 -3.9566341e-03
 -2.6518632e-02
  5.2562290e-01
  6.4196491e-01
 -1.3111775e+00
 -7.9983568e-01
 -5.1332700e-01
 -5.4899555e-02
  3.8017042e-02
 -3.0477241e-02
 -8.0938518e-01
  2.5047085e-01
 -1.1067744e-03
 -3.1689087e-01
  8.7129623e-02
  2.0653440e-02
  3.2786024e-01
  1.0969476e-01
  6.7481738e-01
  2.8966475e-01
 -2.1636638e-01
 -1.1480208e-02
  1.9006012e-01
 -1.2855455e-01
  1.1999931e-01
 -2.0738849e-01
  7.9999626e-02
 -6.9735259e-02
  5.0669531e-03
  6.1738774e-02
 -7.8589521e-02
 -8.4641697e-03
  1.5217145e-01
  1.8842024e-01
  9.2210609e-01
  1.1039159e-03
  2.3676993e-01
  3.2913599e-02
 -1.0189452e-02
  2.4450902e-02
  6.4883889e-03
 -3.8098600e-03
  1.0526655e-02
  2.6972934e-03
  3.1545742e-03
 -1.0092958e-03
 -8.7754074e-03
 -3.2717874e-03
 -3.5166696e-03
 -3.3858832e-02
 -3.1038254e-02
  5.1824898e-02
  3.1674568e-02
 -1.0799058e-02
 -2.9595917e-02
 -1.4511963e-02
  4.4906782e-03
 -1.0602128e-02
 -1.7567448e-02
 -1.4794526e-02
  2.0025229e-02
  5.7989892e-02
 -1.6883573e-02
  8.5326086e-04
  1.4101716e-03
  4.6873114e-01
 -1.0014306e-02
 -1.8007871e-02
  4.1379305e-03
 -1.3355475e-03
 -4.6434797e-02
  5.9482211e-01
  4.8594400e-02
  8.1333490e-03
 -6.5505491e-03
 -3.9229710e-03
 -3.3912431e-03
 -7.0866376e-02
  2.7489103e-03
  2.3216195e-02
  7.4908221e-03
 -1.4776842e-02
 -6.6822626e-02
 -1.7694864e-04
 -7.5164712e-03
 -1.6350657e-02
 -3.3106688e-02
 -3.3335999e-02
  2.2704927e-03
  1.4795202e-02
 -5.5335071e-02
  1.4838809e-02
  3.1788487e-02
  1.0021268e+00
 -4.4366077e-01
 -1.1230306e-01
 -1.5890928e-01
 -2.9621255e-03
  8.4574628e-01
  1.5397240e-02
 -1.8773878e-02
  7.6064490e-02
 -7.9716370e-03
 -2.7302500e-02
  2.1141520e-02
  8.6440369e-03
  6.2768459e-02
  1.0325661e-02
  3.0995902e-02
 -4.5159054e-03
 -1.5450920e-02
 -1.5870627e-03
  9.9143814e-03
 -2.5204390e-02
  1.3519014e-02
  1.4119833e-02
  2.9914502e-02
  3.0342583e-02
  2.2378162e-04
 -2.5959624e-02
  3.3031646e-02
  3.7397298e-03
 -2.2491463e-01
 -6.4425832e-01
  3.2729188e-01
  3.7233796e-02
  1.4137752e-01
 -2.8783467e-03
  3.1358510e-02
  5.1926948e-02
  4.0026061e-02
  1.1651484e+00
  4.6496682e-02
  7.6766079e-03
  1.1188203e-02
  4.9247157e-02
 -1.0160923e-01
  2.1433203e-02
 -7.7754762e-03
 -5.2971742e-03
  4.1742485e-02
  1.3969063e-02
  1.4377141e-02
 -1.1423416e-02
 -2.5132319e-02
  4.4009831e-02
  4.6355787e-04
 -6.9193207e-02
 -1.5408692e-02
 -2.9752856e-02
  1.9141059e-02
 -3.8831306e-03
 -8.2876757e-03
 -3.9059240e-01
  3.9614984e-01
  1.7157305e-03
  2.7785137e-02
  7.8449333e-03
  8.1972545e-03
  1.0178702e-02
  4.7073249e-02
 -6.0678176e-03
 -7.5898645e-04
 -2.3988858e-02
 -3.9756145e-02
 -5.6222333e-03
 -8.8757582e-02
 -3.8714197e-02
  2.9074837e-02
 -1.2510371e-02
 -5.7999161e-03
 -2.5387298e-02
 -1.5415035e-01
  7.5344250e-02
 -3.5467003e-02
  3.0195823e-02
 -2.9294705e-03
 -5.5711479e-03
 -6.0199220e-02
 -2.5550071e-03
  3.3855427e-02
 -5.0747655e-02
 -3.5357684e-01
 -6.8342006e-01
  8.3067566e-01
 -3.6221007e-01
 -3.2357056e-02
  1.6210729e-01
 -2.2151943e-02
  2.7257742e-02
  1.4435305e-01
  1.3869378e-01
  6.5601245e-02
 -1.1981997e-02
 -5.5211168e-02
 -1.0323137e-02
 -7.2274737e-02
  4.8713859e-02
 -1.7806852e-01
 -9.7524608e-03
  2.3543142e-02
  4.7792713e-03
 -2.5628231e-02
  5.3434398e-02
 -1.8779512e-02
 -2.0832898e-02
 -8.8053003e-02
  1.2303051e-02
  1.5609379e-02
  1.5888420e-01
  6.8185955e-01
 -1.0769882e-03
 -1.4101803e-01
  3.5488978e-03
  4.3552101e-01
  9.5242016e-02
  1.7458633e-02
 -3.8251600e-01
  2.1135691e-01
  5.5046594e-03
  1.3399580e-01
 -1.0963403e+00
 -4.4368824e-01
  1.3505973e+00
  5.9048563e-01
  9.2146605e-01
  4.5995343e-02
 -4.5419818e-01
 -6.0085344e-01
  1.1980144e-01
  1.9070156e-01
 -3.6440060e-02
  9.1874290e-01
 -4.3470237e-01
 -5.3170184e-03
 -2.9621777e-01
  8.5132932e-03
 -5.3935703e-03
  1.5975106e-01
  2.1139064e-03
 -4.3423548e-01
  8.2358893e-04
  7.3111212e-01
 -1.7548235e-02
  1.4142704e+00
 -4.6141973e-01
 -8.6348760e-01
  8.3330399e-01
  4.8967639e-01
  1.9313220e+00
  5.7222915e-01
 -7.6881802e-01
 -6.7245084e-01
  2.8202596e+00
  5.7079422e-01
 -1.0812738e+00
 -2.6681969e-01
 -9.2004770e-01
 -2.3130069e+00
  1.3039370e+00
 -3.9820555e-01
  5.8427870e-01
  1.2086797e+00
  7.0762044e-01
  7.3487252e-02
  1.0608267e+00
  4.7982309e-02
  4.5753745e-03
  4.9598390e-01
 -4.5115623e-01
 -7.6114613e-01
 -6.7342132e-01
  1.4020741e+00
  7.7848828e-01
  6.5115237e-01
  6.1986607e-01
 -9.9034286e-01
  1.3877671e+00
 -1.9613506e-01
  3.4393293e-01
  1.3930435e-01
 -1.7204143e-01
  5.3268462e-01
  2.2762562e-01
 -6.8242781e-02
 -2.8529015e-01
 -2.1496277e+00
  9.6592003e-01
  8.5718048e-01
  5.0729353e-02
 -9.4383523e-02
 -6.9327831e-01
  2.4257967e+00
 -8.3223033e-01
  3.8248795e-01
 -3.8087353e-02
 -2.3310945e+00
 -1.8233213e-01
  1.0712414e-02
 -1.7759344e-02
  1.7800298e-02
  3.3264868e-03
  1.5553549e-01
 -3.3120580e-02
  1.1247399e+00
 -6.4962530e-01
 -3.9410734e-01
  6.4877063e-01
 -1.2540238e-01
  8.2085878e-03
 -8.4826547e-01
 -1.2507347e+00
  5.3496048e-02
  5.6633066e-02
 -2.0242622e-01
 -1.1213630e-01
  4.8277497e-01
  3.6228426e-02
 -6.0635727e-02
 -1.1655838e-02
  7.7198786e-01
  1.5037036e+00
  7.0317877e-03
 -5.5412468e-02
 -7.2651513e-02
  2.3475803e-01
  4.8692975e-02
  1.0419486e+00
 -1.9984236e-02
  7.3192477e-02
 -2.4383295e-02
 -2.6838019e-01
 -1.3585562e-02
 -8.4655541e-01
 -5.7534670e-04
  6.7997396e-02
  8.2049334e-01
 -1.1403051e-03
  1.0504903e-02
 -8.4761437e-03
  2.3175417e-02
  1.4948744e-02
 -4.1900435e-03
 -4.4266344e-03
 -1.7260024e-02
 -2.9126875e-04
 -2.7539686e-03
  1.2037246e-02
  5.5080638e-03
  1.1396674e-02
  3.0079536e-04
  3.7876565e-02
 -2.4126332e-02
 -2.0705961e-02
 -3.0529199e-02
 -2.0758433e-02
 -9.1264462e-03
 -5.1335491e-02
  1.6020536e-02
  2.3127014e-02
  2.7580785e-03
  5.5830176e-03
 -2.6963572e-03
 -2.0845693e-02
 -2.3726037e-02
 -1.0896506e-01
 -1.8636908e-02
 -9.3884599e-01
  1.9060923e-02
  2.3154376e-02
  1.1612409e-02
 -4.5569345e-02
 -2.7931817e-02
  6.8384252e-02
 -8.8003417e-03
  3.7067354e-04
  1.5298377e-02
  3.5356019e-02
 -2.1607840e-01
 -1.4893414e-01
  1.7501825e-02
  8.1429062e-03
  1.7851200e-02
  4.5004255e-01
 -9.7158197e-03
 -8.0529176e-02
  1.7010523e-02
  1.2612784e-02
 -1.5496134e-02
  4.4837282e-03
 -3.9058447e-02
 -3.9820652e-03
  2.3909092e-02
  8.8287167e-02
 -4.6849702e-03
 -2.8062185e-02
 -3.1879954e-02
  4.7851489e-03
 -2.7579427e-02
  2.8456835e-02
 -2.1494452e-02
  2.5848910e-02
  1.2473754e-02
 -3.3445686e-02
 -1.4099505e-03
  1.0392923e-02
 -3.5670181e-03
  2.1270406e-02
  2.4242175e-03
 -8.6583151e-03
 -1.9292567e-03
 -5.6808903e-03
 -6.3255012e-02
 -8.6399596e-03
  9.0371994e-03
 -2.9563112e-03
  8.5731084e-03
  5.4005748e-03
  1.7930372e+00
  2.1696566e-02
 -1.6327753e-03
  2.5448117e-02
  3.3082538e-03
 -1.3579167e-01
  3.6827832e-02
  3.0779937e-02
 -1.9939192e-02
 -1.4577310e-03
 -1.4258169e-02
 -1.8539922e-02
  3.5952583e-03
  5.3273239e-03
  5.4340832e-02
 -5.3074691e-03
 -3.7811655e-03
  7.5331428e-03
  1.7490420e-02
 -8.5819773e-03
 -9.8287724e-03
 -1.8073501e-02
 -4.5473449e-02
  8.5664177e-03
  5.7724196e-02
 -6.8977792e-03
 -3.0611973e-02
 -3.8366280e-02
 -9.9440375e-03
 -3.3398028e-04
 -7.5039886e-02
 -4.6602953e-02
 -5.7213354e-01
 -1.5202072e-02
  1.1715272e-02
 -4.8930268e-03
  5.9220809e-03
  1.5377979e-02
 -6.3443527e-02
  3.1073205e-02
  8.9314545e-04
 -5.3716707e-03
  9.7733620e-04
 -6.3895583e-03
  1.2203612e-01
 -4.7422491e-02
 -1.7348347e-02
 -2.6898980e-02
  2.1088170e-02
  6.6061998e-03
  4.8118021e-02
  1.2423814e-02
 -2.0029441e-02
  3.1146757e-02
  6.3465638e-03
 -1.9538011e-03
 -8.0964439e-02
  1.7589934e-02
  1.1503597e-02
 -1.2373260e-02
  2.2322785e-02
  6.3284123e-03
 -2.2068298e-01
  2.6288433e-02
 -5.4617417e-01
  1.8528622e-02
  1.3291179e+00
  1.1987927e+00
 -1.4765648e+00
 -5.0937500e-02
 -4.8318464e-02
 -1.4817198e-01
  6.0088205e-01
  3.0530038e-01
 -4.5809049e-02
 -1.6032276e-01
 -5.3088874e-02
  2.9279611e-01
  2.2537279e-01
  9.4610723e-03
  1.2132883e-02
 -8.8344869e-04
  2.8699905e-01
  9.2647761e-02
 -8.2572877e-02
 -3.8952580e-01
 -4.1085821e-01
  3.8792253e-01
 -5.2600354e-01
 -2.6621900e-02
  7.2398025e-04
  4.7677949e-02
 -9.3071563e-03
 -7.6628469e-02
  8.0904013e-01
 -1.3672849e-03
  9.1123879e-01
 -1.8887458e+00
 -4.0123820e-01
  2.2311024e-02
 -1.0491197e+00
 -3.1014475e-01
  3.4914917e-01
 -1.3800905e+00
  1.2380488e-01
 -2.7446317e-02
 -9.1413635e-01
 -1.0861471e+00
  1.5246142e-01
  2.2249781e-02
 -5.8773300e-03
 -4.0266465e-02
  9.1071856e-01
  5.7282895e-01
  3.0691549e-02
 -1.7812951e-02
 -8.7079676e-03
  7.9915345e-02
  7.1326524e-01
  5.9428226e-02
 -1.2296212e-01
 -2.7508639e-02
  2.3505582e-01
 -4.7791752e-01
  1.6500382e-03
 -1.6071413e-02
  5.5529498e-02
 -2.7277470e-02
 -4.2735100e-02
 -3.1213289e-01
  3.0383566e-01
 -1.6377959e-02
  2.7327836e-03
  2.8455406e-01
 -6.2789366e-02
 -1.3370520e-02
  1.5638450e-02
 -8.6251721e-03
 -2.4296897e-03
  3.1160191e-02
 -4.3777499e-02
 -2.7358392e-02
 -7.8055109e-03
  3.7831981e-02
 -1.9192487e-02
 -2.8737927e-02
 -4.0853024e-02
 -3.2733314e-02
  2.3404375e-02
 -5.0981313e-02
 -1.3614893e-02
 -6.4190994e-03
  3.7653348e-03
 -1.6622867e-02
  9.3014307e-02
 -3.9791149e-01
  2.6640153e-02
 -4.8786592e-01
 -1.5849345e+00
  1.9987823e-02
  3.3148862e-02
 -3.4365481e-01
 -2.6909220e-01
  1.3327277e-01
 -3.8200471e-01
 -4.6101338e-01
 -2.0836286e-01
 -9.8896611e-01
  8.0351710e-01
 -1.6360319e-01
 -5.8719540e-01
 -7.7137095e-03
 -8.4101909e-01
  6.4790249e-01
  8.1566900e-02
 -1.4619664e-02
  1.8405577e-02
  5.1922865e-02
  4.1275939e-01
 -6.2420778e-03
 -8.6673662e-02
  1.7589478e-02
  7.3647313e-03
  2.1212474e-01
 -3.8335285e-01
  3.7826774e-01
 -4.5999295e-01
  2.7400365e-01
  6.3785523e-02
  2.3571886e-02
 -3.1504720e-02
  8.1434213e-02
  4.8340103e-03
  8.8233776e-02
  3.9803863e-02
  7.4510403e-02
  5.7420628e-03
  3.4144979e-02
 -4.4227433e-01
  2.5443126e-02
  2.0943133e-02
  9.5993392e-03
  1.0418556e-01
 -2.5639188e-02
  4.8414362e-03
  1.2293223e-01
 -2.4805412e-02
  4.7803778e-02
 -9.9177903e-01
  1.0297058e-01
  1.9700395e-02
 -5.5378955e-02
  2.7062440e-02
  3.8019966e-02
  2.0636123e-02
  3.9565299e-02
 -6.9933765e-02
  4.0159781e-02
 -2.2095600e-03
 -2.2217899e-03
  3.8127135e-02
 -4.9696527e-02
 -7.2258604e-03
 -1.4757736e-02
  3.7427689e-03
 -7.9824794e-03
 -2.1213055e-02
  6.3007012e-02
 -3.3020489e-03
 -1.5591744e-02
 -4.7965333e-02
  4.5623928e-01
 -7.2664786e-03
  1.3560958e-02
  1.6548276e-02
 -2.3957346e-02
  1.8867253e-03
 -5.9991912e-03
 -2.4608122e-02
  3.0230790e-02
  4.2640314e-02
 -6.6336975e-02
  1.3447922e-01
  5.1600039e-03
 -2.7701003e-03
  7.1237567e-03
 -1.0330653e+00
 -9.9035120e-04
  4.4138116e-01
  3.4761041e-02
 -2.9299891e-02
  5.5694222e-02
 -8.7326869e-02
 -7.3495589e-02
 -1.5512778e-02
 -1.5207628e-02
  3.2161242e-01
  1.7538594e-02
 -4.5143664e-02
  1.6841280e-03
 -5.3222451e-02
  5.3034268e-02
  2.0270981e-02
  2.8724389e-03
 -2.8538560e-03
 -6.2262379e-03
 -1.3421661e-02
  6.8294918e-03
 -1.4558271e-02
 -3.2717339e-03
 -4.9812421e-02
 -7.5343656e-03
 -5.8129299e-02
 -9.5400226e-04
 -4.0943041e-03
 -3.1793010e-03
 -1.1644864e-02
 -6.0544062e-02
  3.5129521e-02
  2.9556386e-03
  6.9784620e-03
  4.6276888e-03
  3.1775289e-04
  1.9933172e-01
 -2.6090569e-03
  3.4945089e-02
  2.2964394e-02
 -3.2761209e-02
 -3.6632558e-03
 -1.5798075e-02
 -3.2602888e-02
 -9.1181630e-03
 -6.7110690e-03
  3.5532638e-02
 -2.7627701e-02
 -8.8395020e-05
  1.7211622e-03
 -1.0396967e-02
 -1.2701611e-01
  1.7051829e-02
  2.5714936e-02
 -1.7628562e-02
  4.2784028e-02
 -2.9999897e-02
  1.0717983e-01
  8.6206496e-03
 -1.3484760e-01
 -4.5587518e-03
  2.2064738e-02
  6.4124018e-03
 -9.3729078e-04
 -6.6061686e-03
 -5.7660013e-02
 -2.3718413e-02
 -4.6074786e-03
  6.8963490e-02
 -5.1385540e-01
  1.0911645e-03
 -6.2082201e-02
  4.1668195e-02
  2.0001145e-02
  2.4664016e-02
 -6.8844426e-03
  2.8435748e-02
  2.0956662e-02
  1.2414944e-02
  7.7543530e-04
 -1.3489240e-03
 -2.4618455e-03
 -9.1233559e-02
 -1.6049527e-02
 -8.1877127e-02
 -1.3777222e-02
  5.2992329e-03
 -7.7903098e-01
 -3.6156705e-01
  3.2011315e-01
 -1.3212619e+00
 -6.6295169e-02
 -1.7817625e-01
  3.1863987e-01
 -3.2780570e-01
 -3.4091714e-01
 -2.0655666e-01
 -2.6300509e-02
 -2.5767943e-01
 -1.7112404e-01
 -4.2058185e-01
  1.7686063e-01
 -1.6287129e+00
  2.7587913e-02
 -2.0413997e-02
 -8.2287532e-01
 -1.0156569e+00
  3.7975422e-01
 -2.1820733e-01
  2.1975371e-01
 -1.0783861e+00
 -4.6866521e-01
  1.3107337e-02
 -7.9100793e-03
 -4.7299340e-03
 -1.7455052e-01
 -8.0517185e-01
 -1.0270525e+00
 -1.0307784e-01
 -1.7221996e-01
 -1.2292385e+00
 -1.8831339e-02
 -1.7105548e-02
 -3.9612302e-01
 -4.5480426e-02
  1.6228789e-02
 -1.3957801e-01
 -2.9134220e-03
 -6.9035073e-03
 -1.9730967e-02
 -4.5546162e-01
 -9.9847251e-01
  1.0267947e+00
 -2.1868862e-02
 -5.8749657e-02
 -2.9350707e-01
  2.9036513e-01
 -1.6080858e-01
 -6.5955654e-02
 -1.4036135e-01
  2.7605724e-01
 -1.5023443e-01
 -3.9745116e-04
 -7.5535937e-03
  1.2965038e-01
 -5.3137601e-03
 -1.6160281e-01
  9.5070824e-02
  2.0536734e-02
 -5.7478368e-02
 -5.2052981e-01
  1.0092782e+00
 -1.0664198e-02
 -1.0144980e-01
  7.7091716e-03
 -4.1152358e-02
  2.7087379e-01
  1.7731318e-01
 -9.7566162e-04
  2.5010051e-02
 -1.6155766e-02
  2.7411154e-03
  4.3564133e-02
  1.2344531e-01
 -7.1103079e-03
  2.4394822e-01
 -3.5168868e-02
 -1.2332950e-02
  2.7298359e-02
  1.1615719e+00
  2.5279773e-03
 -3.8074087e-02
  8.7503912e-03
 -1.6546621e-03
  1.0417338e-02
  8.9512412e-03
 -2.3636175e-03
  1.7650023e-02
 -2.0734172e-03
 -1.6079559e-03
  9.3007796e-03
 -2.0408541e-01
  1.0114735e-02
  3.6940560e-02
  4.5277583e-03
 -1.1478156e-02
 -2.0747514e-02
  3.3606432e-02
  2.7403183e-02
 -2.0513436e-02
 -5.1861808e-02
  8.7184962e-03
  5.3499043e-02
  5.6338377e-02
  4.1201416e-02
 -8.4371213e-03
  3.3146668e-02
 -4.4121012e-02
  8.0029042e-03
 -3.4732249e-02
  7.7377376e-03
 -1.9345557e-02
  1.0547072e-03
  3.1184079e-02
  2.0155668e-02
 -9.4169997e-02
  2.3298129e-02
 -1.2478633e-02
  7.3192239e-02
 -1.0595210e-02
 -5.4535523e-02
  9.0165108e-01
 -1.8071313e-03
  8.3314776e-02
  9.4105744e-01
 -3.5450764e-02
  1.9740943e-02
 -2.8185751e-02
  1.9375119e-02
 -3.0349026e-02
 -1.2050965e-02
  2.2182520e-02
 -3.3905798e-01
 -1.1064222e-02
  2.7951565e-02
 -2.8663763e-01
  1.2412987e-02
  1.9293949e-02
 -6.3887890e-03
 -1.6355023e-02
 -8.3278473e-03
  1.2536570e-01
  5.7152723e-04
 -2.2519402e-02
  2.5259102e-02
 -8.5540563e-03
 -1.6415030e-01
  2.5292289e-02
 -3.0910948e-01
 -3.7174278e-01
 -2.8444174e-01
  4.7100417e-02
  4.4747744e-02
 -3.6960293e-02
  3.1917775e-01
 -1.9236837e-01
  2.1719098e-02
  3.9789893e-02
  3.4661780e-03
 -6.0057184e-03
 -8.3202936e-02
 -1.6572098e-01
  7.6020174e-02
 -1.7503779e-01
  3.0346667e-02
  3.1953922e-01
  1.6226454e-01
  7.7074058e-02
  2.1151023e-01
 -6.3933292e-03
  1.0070801e-02
  7.5378753e-03
  1.4870904e-02
 -1.0442692e-03
  2.6549887e-02
  9.7910443e-04
  2.9454437e-01
 -1.3534855e+00
  5.7173087e-03
  7.7639562e-01
  7.2942245e-01
  8.0044353e-01
  5.7628351e-01
  5.0708216e-01
  4.9425922e-03
 -2.4102946e-01
 -3.2733685e-01
  1.3223742e+00
  1.9974886e+00
 -1.7531835e-01
  2.9206690e-01
  1.9214040e+00
  1.4647945e+00
  1.9790901e+00
  8.2793020e-02
  1.2199315e+00
  2.6770392e-01
  6.1269462e-01
  8.2196337e-01
 -8.0396754e-01
  1.9883136e-01
 -7.7745192e-02
 -6.0433973e-02
  1.5633874e-01
  1.7138101e-02
  2.6086286e-01
  1.8304802e+00
  4.3435574e-02
  3.6775663e-02
 -1.2832904e-01
  3.8551420e-02
  4.8783693e-02
  5.7445765e-02
  4.0568220e-03
  9.9768080e-03
  2.6068740e-02
 -3.0151842e-02
 -7.2035156e-03
 -1.7870467e-02
  1.3266782e-03
  1.2503016e-01
 -2.1586421e-01
  1.5680505e-02
  4.8085283e-02
 -4.2980649e-03
  1.5758051e-02
  2.5515785e-03
 -1.8541327e-02
  5.6404464e-02
  2.9914598e-03
  4.7417764e-02
 -2.1119236e-03
  4.8895806e-02
  5.2293543e-02
  2.7057284e-02
 -1.0176201e-02
 -2.1000246e-02
  3.3195037e-02
  2.3353815e-03
 -5.7429369e-03
  5.3118602e-03
 -9.4669396e-03
  8.6048888e-03
  2.6411626e-02
 -6.8981806e-03
  4.9072593e-02
  3.1389505e-02
  1.3668414e-02
 -1.5068609e-02
  5.2727270e-03
  2.6467079e-03
  3.7374252e-01
  2.8946377e-02
  1.5867749e-02
 -1.1548984e-03
 -3.4201022e-02
  6.4997850e-03
 -2.7086133e-02
  8.5441582e-03
 -8.5114641e-03
  1.9358734e-02
 -6.1097875e-02
  7.3607941e-04
 -8.0630346e-04
  2.9294027e-03
  1.0754273e-02
 -1.0747761e-02
  6.6661030e-01
 -1.4381455e+00
  1.8760154e-01
 -3.8887671e-01
 -4.0264848e-01
 -2.8657323e-01
 -2.6386735e-01
 -3.7028104e-01
  3.5177597e-01
  1.2048273e+00
 -4.2092976e-01
 -2.6067120e-01
  3.0941557e-02
  2.2377740e-01
  2.6539877e-01
 -1.9056643e+00
 -1.1132861e+00
 -3.2984027e-01
  3.6471543e-01
  8.9561456e-01
 -1.5160315e+00
 -3.0314553e-01
 -2.9512188e-01
 -3.4686121e-01
  3.1846142e-01
  8.4923841e-02
 -2.0240667e-01
 -4.8919268e-02
 -6.0118139e-01
  5.3795341e-02
 -7.9119932e-03
 -1.7455513e-02
  7.2520301e-02
  1.1234038e-02
 -2.7656229e-03
  2.0049943e-02
 -1.1944890e-02
 -1.0194739e-02
 -1.2383050e-02
  4.7415078e-02
  6.5051101e-02
 -4.5242379e-03
 -6.4020380e-02
  1.4008957e-02
  1.2875379e-02
  1.1585641e+00
 -2.7626832e-03
 -6.7492485e-02
 -1.0218460e-01
  4.7794310e-03
  1.0446375e-01
  3.5367839e-03
  2.4402170e-02
 -2.3736499e-02
  3.5853498e-02
 -6.3337642e-04
  1.7399477e-02
 -2.7527824e-02
 -2.5907843e-03
 -7.7107055e-03
 -2.1408413e-02
  1.2579719e-02
  4.6182442e-02
  1.6072142e-01
  5.5303533e-02
 -4.6063433e-03
  4.0951324e-01
 -1.4828010e-02
  2.6363710e-02
  4.2748153e-01
 -2.5513312e-02
  4.3044291e-03
 -9.7217262e-02
 -1.9404927e-01
  1.1280615e-01
  1.8730687e-02
 -3.0004520e-02
 -9.0758130e-03
 -1.5879151e-01
 -9.0301307e-03
  9.0358812e-01
 -2.0625996e-03
 -9.1869477e-03
 -3.1530086e-03
 -4.2996272e-03
  4.8816830e-02
 -2.9888116e-03
 -2.9585775e-02
  3.6419614e-03
 -3.6202632e-02
 -6.2272213e-02
 -2.8559087e-02
 -1.3290161e-02
  1.4130769e-02
 -2.1132485e-03
  7.3007848e-03
  3.2457761e-02
 -9.1926464e-05
 -1.0919527e-02
  9.8391408e-03
 -6.2569372e-02
 -1.9824136e-02
  3.1479053e-02
  7.8499414e-02
  1.2578518e-03
  3.2447553e-03
 -5.9158228e-02
  3.2186348e-02
 -2.2638410e-02
  6.8435095e-02
 -2.3857178e-04
  2.9610425e-02
  5.4252837e-02
  7.8439824e-03
 -1.5937395e-02
  5.9940703e-02
 -4.2856508e-03
  1.4215101e-02
  4.9633708e-02
 -1.0452088e-01
  1.4318179e-02
 -3.6414310e-02
 -2.3687610e-02
 -2.8159350e-02
  1.7187541e-02
  1.9040699e-03
  2.1636343e-02
 -7.2234902e-03
  6.8187318e-03
 -1.4402356e-02
  3.5070411e-03
  2.7985334e-02
  1.8900355e-02
  6.7939693e-03
 -4.1322257e-02
  3.4221467e-03
 -7.5409152e-03
  1.6335448e-02
  3.1860728e-02
  3.5102233e-02
  1.1328576e-02
  2.5122140e-03
  3.6542855e-02
  4.0433928e-02
 -1.1404646e-02
 -3.0050959e-02
  4.8002761e-02
 -1.3101961e-01
  3.2171991e-02
  2.0709573e-03
  2.7472296e-01
  5.2831292e-01
 -2.2235110e-03
 -1.5561123e-02
 -1.9801330e-02
 -7.9705855e-03
  1.8369143e+00
  1.1286427e-02
 -3.0427530e-01
 -7.6066129e-02
 -8.9241743e-01
  1.7702648e-01
  4.2794528e-03
 -1.0268979e+00
  4.4418323e-01
  6.5445369e-01
 -2.2450583e+00
 -2.4767953e-01
 -5.5198735e-01
 -2.8827092e-02
  9.7716153e-03
  1.2092037e-01
  3.6206975e+00
  1.8140450e-01
  4.4905746e-04
 -9.6227610e-01
 -4.0552118e-03
  5.5185711e-01
  2.1877458e-02
  3.7236963e-03
  1.6087468e+00
 -7.2333068e-01
  7.5723194e-02
 -5.6247972e-02
  1.2919168e-01
 -1.9797663e-01
 -2.7875683e-01
 -7.3998028e-01
 -4.9731201e-01
 -3.9435056e-01
 -7.4075198e-01
  3.9951316e-01
  8.0756962e-02
  1.0931344e-01
 -1.2807696e-01
  2.3779577e-01
 -1.7174975e+00
 -6.4085943e-01
  6.8084413e-01
 -1.5633579e-02
 -1.4153513e-01
  5.6792718e-01
  1.6474504e+00
  3.2690394e-01
  1.2041149e-01
 -1.9727460e+00
 -1.3522173e-01
 -3.6383489e-01
 -7.9907790e-02
  1.5729620e-01
  5.4129869e-02
  2.0477060e-02
 -5.0768234e-02
  1.8778188e-02
  6.9692373e-02
 -2.5807174e-02
 -3.7508251e-03
 -8.2743866e-03
  1.3370813e-02
 -6.7035342e-03
  3.9111458e-02
 -5.5826321e-04
 -2.5275948e-02
  1.7359443e-02
  5.2259859e-02
  9.8350039e-04
 -6.5616718e-03
  6.2860427e-03
 -4.9661838e-02
  3.1172002e-03
 -1.3153904e-02
 -2.8531117e-02
  1.8957771e-02
  7.8680022e-03
  1.3179783e-02
 -8.0429803e-04
  6.1376602e-03
 -1.2174799e-02
 -3.6364723e-02
 -6.0061230e-03
 -1.1083140e-02
  1.1405953e-02
 -4.0846657e-02
 -8.0178883e-03
  4.6216637e-02
 -2.0517644e-02
 -4.3103267e-03
 -4.1837398e-02
  5.2648164e-02
  7.8958794e-03
 -1.1504300e-02
  1.8272491e-02
 -1.2842438e-03
 -2.9384568e-02
 -1.0432057e-02
 -6.5620807e-03
  4.6618465e-02
 -1.0097742e-02
 -7.9218531e-03
  3.9752234e-02
  1.9846294e-02
  4.8477207e-03
 -3.2772424e-03
  1.5614169e-02
  2.0393144e-02
  1.6822726e-02
 -4.4941019e-02
 -8.6673871e-03
 -9.8829614e-03
 -4.8969965e-04
  2.9751610e-02
  6.9754682e-02
  4.3120690e-02
  2.4136102e-02
  1.3197619e-05
  4.1237768e-02
 -2.0670434e-02
 -1.0874703e-03
 -1.9794617e-02
  8.1541598e-02
  2.4071623e-01
  1.2544467e-03
 -6.6779028e-03
 -2.2436375e-02
 -3.7089743e-02
  4.2347003e-02
  6.7618364e-01
 -3.8513746e-02
  3.6849856e-02
  1.2273108e-02
  3.4672040e-02
  1.2509188e-02
  8.9716363e-01
  7.8595085e-03
  5.4725282e-02
 -4.1308153e-02
  1.8347086e-02
 -9.5331939e-03
 -3.4295429e-02
 -3.0726749e-02
 -4.2378161e-02
  3.7613446e-03
 -1.1278851e-02
  3.7193785e-03
 -1.2122566e-02
 -4.9191825e-03
  1.7347498e-04
  8.1253186e-02
 -6.5704882e-03
  2.3639535e-03
 -1.1415535e-02
 -2.7032899e-02
  2.7216230e-02
 -5.7786489e-03
  5.5803810e-03
 -4.1319311e-02
  5.6591332e-02
  1.3850621e-02
  2.7640272e-02
 -1.1612560e-02
 -1.4857435e-01
 -1.0854568e-02
 -2.2663739e-01
 -1.4039880e-02
  6.0796406e-02
  4.1830698e-03
 -2.3672033e-02
 -8.1259105e-03
  1.9483238e-02
  2.2324158e-03
 -3.1586553e-03
 -1.2801686e-01
  6.2735021e-02
 -2.9269038e-02
  1.4581488e-02
  2.6425513e-04
  1.5275720e-02
  1.4515045e-02
 -1.3241833e-01
  6.9859936e-03
 -7.6958369e-03
  5.6411759e-03
 -3.3756856e-02
 -1.8590464e-01
 -1.5782024e-01
  2.2416683e-02
 -5.3698234e-02
 -9.5514636e-03
  3.0617014e-01
 -1.7252039e-02
 -3.7931152e-02
  3.7414741e-02
  2.6132822e-02
  5.8258541e-02
 -2.0622516e-02
 -7.0857112e-03
 -1.5984869e-03
  5.1686577e-03
 -9.6042641e-04
  1.4211572e-02
  3.4319803e-02
  6.4262129e-02
  5.0647818e-02
  1.2687052e-02
 -2.9303173e-03
  3.4864968e-01
 -2.9325375e-02
 -6.5999806e-01
 -2.5970295e-02
 -1.6268807e-02
 -1.4416556e-03
 -6.1827321e-02
  1.3442676e-02
 -1.0693396e-02
  5.9566524e-02
 -7.4365255e-03
  3.6636140e-02
 -2.5744472e-02
  1.6318714e-03
 -2.6159124e-02
  3.1808075e-02
  4.1676412e-04
  3.6293473e-02
 -2.6981950e-02
  7.4109793e-02
  3.7295828e-03
 -7.1910761e-02
 -1.1770419e-03
  2.6747100e-02
 -5.8545000e-03
  2.8003262e-02
 -1.1592554e-02
  2.6135223e-02
 -1.0630103e-02
 -1.6399685e+00
 -8.5858762e-02
  2.4413396e-02
  3.5605110e-02
  1.9133480e-02
  2.1682074e-02
 -6.9068316e-03
  8.2447402e-02
  5.5234626e-02
  1.0760040e-01
  1.9234402e-01
 -8.2231415e-03
 -2.2463135e-02
  1.4290825e-02
 -1.2324222e+00
  4.0020313e-02
 -3.8610090e-04
 -3.0429104e-01
 -1.7165637e-02
  1.5797909e-02
  2.1254383e-02
 -1.3002413e-02
 -3.6092412e-02
  1.6836111e-02
 -1.1643441e-02
 -3.9914221e-02
  7.2455920e-02
  8.9220695e-02
 -2.8004387e-01
  4.6651319e-02
  3.2930728e-02
 -1.2020756e-02
 -3.5843570e-02
 -1.3790875e-03
  6.2594065e-03
 -9.8066643e-02
  9.9294167e-03
 -1.4757490e-01
 -1.3571915e-02
  4.7694232e-02
  2.2714444e-02
  5.9052441e-02
 -5.2547981e-03
 -2.1325517e-03
  3.4638301e-02
 -1.3922914e-02
 -6.0984957e-01
  3.4755096e-02
 -1.7731028e-02
 -8.4779495e-03
  1.9228244e-02
  4.7504832e-03
  1.0784351e-02
  9.6566073e-04
 -3.8470767e-02
 -2.9483017e-02
  2.5544702e-03
 -2.8701041e-02
 -4.7892541e-02
 -1.3016894e-03
 -1.2748492e+00
  5.5508073e-02
  2.9743515e-02
 -7.5066879e-02
 -7.5486198e-02
 -4.5913737e-02
  1.3387507e-02
  4.3734748e-02
  1.9210467e-02
 -1.6827412e-02
 -3.8422886e-02
 -3.6980428e-02
  4.3588415e-02
 -4.6863365e-03
  9.7248897e-02
 -1.0813971e-02
  4.9841426e-02
 -8.1937276e-02
 -6.9930137e-04
 -2.5600076e-03
  2.5752527e-03
  3.0224221e-02
  5.9723735e-02
  4.0896066e-02
  4.5156151e-01
 -6.5025948e-02
  7.9625482e-03
  2.3154104e-02
 -3.8214885e-02
 -2.8330272e-03
 -4.6554045e-03
  1.2127283e-02
 -2.1592170e-02
 -3.7663545e-02
 -3.8784984e-02
  1.8347823e-03
  1.9166183e+00
  3.0867966e-02
  4.5100059e-03
  2.1638427e-02
 -1.3814515e-02
  3.2295894e-02
  9.2305380e-01
  9.1742147e-03
  1.3105351e-01
  1.8433464e-03
 -1.5856294e-02
 -4.8193973e-02
 -2.8803350e-02
 -6.9035561e-04
  1.0271705e-02
  1.0137701e-02
 -4.2422130e-03
 -2.5692545e-02
  1.4657950e-03
  1.2836023e-02
  1.0440466e+00
  1.1859185e-01
 -6.2019102e-02
  5.8966350e-02
 -3.7682038e-03
 -2.0086436e-02
 -3.7810327e-03
  1.9446764e-02
  4.8780176e-03
  6.1679888e-03
  2.5036871e-02
  3.5121355e-02
  3.3289421e-02
 -4.5198478e-02
 -9.1177911e-02
  1.1228004e-02
  1.1700997e-02
 -3.3642612e-02
  1.1210592e-01
 -9.2207538e-03
  7.7042207e-02
 -1.3992797e-03
 -1.3773167e-02
  2.9533310e-03
 -5.5080713e-03
 -5.8532156e-02
 -6.2634528e-02
  2.0072900e-02
 -2.9843941e-02
 -3.5938693e-03
 -4.0072840e-02
  8.4520271e-03
  3.9726216e-03
  8.9860809e-01
  6.2514516e-04
  2.9982338e-03
  3.7160896e-02
 -1.3250053e-02
  1.8619984e-02
 -5.5720460e-02
 -2.7318927e-02
 -1.5764579e-02
 -3.4291014e-02
  3.1441163e-02
  1.6088780e-02
  1.4310891e-02
  8.1675062e-03
 -2.3836508e-02
 -1.1804698e-02
  3.9200429e-03
  1.8736631e-02
 -9.8936483e-03
  3.0342674e-02
 -7.6089683e-03
  4.9836487e-03
 -9.0717683e-03
 -4.4361085e-02
 -4.7999062e-04
 -2.1195669e-02
  7.6411935e-03
 -1.6892693e-03
  3.6933057e-02
 -3.6417448e-03
  1.8464290e-02
 -5.3353537e-02
  9.2583559e-03
  1.7576572e-02
  3.9813495e-03
 -9.5371169e-04
  5.8338302e-03
 -3.0462041e-03
  9.1115301e-03
  4.0966205e-02
 -3.2377802e-02
  6.6239882e-04
 -1.0043659e-02
 -6.6891782e-02
 -3.0356498e-02
 -9.3262848e-03
 -1.1340465e-02
 -3.6109596e-02
 -4.2085950e-03
  1.0787934e-02
  3.8532350e-02
  2.3367576e-02
  2.6688056e-02
  3.2734573e-03
 -5.8660764e-01
 -2.1136522e-02
  7.0028007e-03
  6.0412329e-01
 -1.5733066e+00
 -1.4373469e+00
  1.9501817e-01
  2.3897419e-02
  6.3128881e-03
  1.5043895e-02
 -9.2865743e-02
 -2.1031039e+00
 -2.0474021e+00
  3.5785861e-02
  3.7283180e-03
 -1.9839017e-02
 -1.5614557e+00
 -7.8626984e-01
 -4.1083682e-02
 -2.3940995e-02
  2.4744622e-02
  3.1178099e-01
 -2.2711785e+00
  2.8192516e-02
 -5.3384837e-02
  1.4886847e-02
 -1.4056972e-01
 -2.2487190e+00
 -4.7710143e-02
  1.9915959e-02
  2.5700467e-02
 -6.6912979e-02
  4.4337010e-01
  2.5847825e-01
  2.3556422e-03
 -4.3207474e-02
 -4.7931436e-02
 -5.1343202e-04
 -2.6012482e-02
 -8.6848820e-03
 -4.3154112e-03
 -1.8208008e-02
  3.5303613e-04
 -3.6984030e-02
 -1.6216397e-02
 -2.2698546e-02
  5.5240750e-01
  2.8876144e-01
 -2.6335675e-02
  9.8233372e-03
  1.6973956e-02
 -5.8274390e-03
  3.8238299e-01
  1.6620455e-02
 -3.4401260e-02
  1.2266322e-02
 -6.7939702e-03
  1.6617397e-02
 -3.6163144e-02
  5.3549215e-02
 -8.3151706e-02
 -4.3415349e-02
  5.3393235e-04
  1.0791026e-02
 -9.0088425e-03
 -1.2409943e-02
 -1.3806016e-02
  9.4294501e-03
  7.7220291e-02
  2.8409348e-03
  9.3798991e-03
  4.9796615e-02
 -1.7775029e-02
  2.6444877e-05
 -1.9221883e-02
  9.4840573e-03
  1.2862323e-02
 -2.1615395e-02
 -3.9302088e-02
 -2.3723075e-02
  1.2167833e-02
  3.7204776e-02
  9.6249850e-03
  1.6172263e-01
  6.5019324e-02
 -3.0887768e-02
  6.6660955e-03
  2.6798621e-03
  2.7241290e-02
 -7.8304587e-03
  5.4857317e-02
  6.4274497e-02
  4.9912814e-02
  2.8816381e-02
  3.0892396e-02
  5.5882228e-03
  1.1391086e-03
 -8.6713079e-03
  2.2336643e-02
  3.9435044e-02
 -1.1344743e-03
 -4.6733178e-02
  2.8141627e-02
  5.6552514e-03
 -7.7999630e-03
  3.9691325e-02
  6.9143861e-03
  7.1477494e-03
 -2.1985162e-03
  9.2904310e-04
 -3.6944583e-02
  5.2094627e-03
 -3.8737491e-02
  2.7932463e-02
 -8.5354941e-03
  1.3358815e-03
  2.4083793e-02
  2.0464262e-02
 -9.8768910e-03
  5.7524708e-03
  6.6474611e-03
 -2.8805368e-02
 -1.4082747e-02
  1.5717936e-01
  1.4528577e-01
 -9.2799459e-03
  2.5928285e-02
  4.7518741e-03
  5.2057777e-04
  2.9930765e-02
 -7.7390238e-03
  6.8511046e-02
  4.4230439e-02
  3.3689950e-02
 -1.0410008e-02
  1.9040214e-02
 -1.8819315e-02
  7.7507868e-02
 -1.4302329e-02
  1.1835155e-01
 -3.3645194e-02
  1.3261347e+00
  6.3276923e-01
 -2.5301840e-02
 -1.0923892e-02
  1.8374642e-02
  2.5655007e-01
 -1.3295479e-02
  3.4264449e-02
  5.6694187e-03
  6.8480386e-03
  8.2772535e-01
 -2.3852626e-02
 -4.8834212e-02
  5.5799887e-02
  3.2203425e-02
  9.0750568e-03
  6.5724142e-03
 -9.0890966e-02
 -4.4743907e-02
 -2.0023255e-02
  1.4429421e-02
  5.7282858e-03
 -9.4175162e-03
  3.7343425e-03
  5.3243926e-03
  1.7332807e-03
  4.3934498e-02
  2.2837918e-02
  2.5395576e-02
 -2.3587942e-02
 -5.2671611e-02
 -5.5566110e-02
 -1.0601503e-02
  2.8173869e-02
  1.6366555e-01
 -3.2644387e-02
 -3.3078652e-02
 -3.7327003e-02
 -7.1950309e-04
 -3.2425653e-02
  8.5220534e-01
  2.3243851e-03
  3.4298316e-01
  7.0013404e-02
 -1.9012328e-02
  7.6146177e-03
 -9.7853867e-03
  8.0995271e-03
 -9.2390953e-03
 -2.4178991e-02
  2.3971749e-02
  1.5411592e-02
 -1.7863394e-03
  1.0102044e-02
 -9.8844491e-02
  4.7069844e-03
  4.5301683e-02
  1.3879630e-03
  1.2333774e-02
 -7.7916205e-02
  9.6584991e-02
  5.8785595e-02
 -1.0829633e-02
  9.9530937e-03
  5.3413142e-04
 -3.5937689e-02
 -1.7885510e-02
  3.4535624e-02
 -2.2369670e-04
  7.1057398e-03
 -1.4243829e-02
 -1.0105659e-02
 -5.4024631e-01
 -5.8831323e-02
  1.2416932e-02
 -2.4541590e-02
 -2.0022929e-02
 -6.5929480e-03
  1.7069761e-02
  1.7085059e-02
  7.0052676e-02
 -1.8972401e-02
  7.8072390e-03
  2.1005956e-02
  1.0253333e-01
  4.1932542e-02
  1.1170633e-02
 -3.0145653e-02
  3.9378043e-02
 -1.3358862e-03
  2.5867759e-03
 -1.9700520e-02
  1.2805581e-03
  1.4649769e-02
 -9.5641492e-03
 -4.9256168e-02
  1.2782462e-02
  6.0849236e-03
 -3.5320904e-02
 -1.2290667e-02
  5.7474834e-01
 -4.2025549e-03
  4.4159754e-03
 -6.1797658e-03
 -2.3458818e-02
  1.6757926e-02
  6.3195236e-02
  2.4520602e-02
 -3.8168494e-02
 -7.7861850e-03
 -2.9874654e-03
  4.3743465e-02
 -2.4054727e-02
 -1.9279117e-02
  1.3549183e-02
  1.0414420e-02
 -8.8865183e-02
  5.1613685e-02
 -5.4255180e-02
 -1.9522542e-03
 -3.2541987e-02
  5.5363081e-02
 -1.8278925e-02
  1.0276241e-02
  4.3625017e-03
 -1.6565578e-02
  6.1056623e-03
  2.2051001e-02
  1.1667808e-02
 -7.3339925e-03
  1.1168781e-02
 -2.8332805e-02
  1.3358659e+00
  5.2667928e-01
 -8.5638843e-02
  8.2950192e-03
  3.4618832e-02
 -2.6533278e-02
  4.3749280e-02
 -1.1612943e-03
  8.7305492e-01
  4.3281174e-01
 -2.3014669e-03
 -1.7784908e-03
 -2.9914642e-02
  2.0143351e-01
  6.6786999e-01
 -3.1018540e-02
 -1.1765704e-02
 -7.8440765e-03
 -7.5741559e-02
  2.8046328e-01
  7.8325886e-03
  1.0742265e-03
  3.0537581e-02
  1.3582020e-01
  1.1860900e-01
  3.0327750e-02
  1.8641286e-02
  3.3229098e-02
 -4.3567959e-03
 -6.5756492e-02
  2.4199817e-02
 -2.2090373e-03
 -4.2304243e-03
  8.3649848e-03
 -1.8128462e-04
  9.0891458e-03
  9.9032531e-03
 -4.7204886e-03
  9.9336281e-02
  4.0382277e-02
 -1.8068528e-02
 -4.0026070e-03
  6.9622709e-03
 -2.8587762e-02
 -1.9641928e-02
  5.0735688e-03
 -2.8405272e-04
  8.4896601e-04
 -4.6874452e-02
 -2.8564095e-01
  2.3453442e-02
 -3.9563086e-02
 -1.7957425e-03
  8.9803170e-03
  3.0330598e-02
  4.3577760e-02
  3.7468871e-01
  1.2679091e-02
 -2.5570975e-03
  3.0311445e-02
  8.0646966e-03
  9.2367396e-02
  2.3619812e-02
 -1.8031565e-02
  2.4984904e-02
  2.6645489e+00
 -3.8262226e-02
 -2.2826249e-02
  1.1442751e-01
  3.0662853e-02
 -8.5253054e-03
 -3.0783094e-02
  2.4941361e-03
  2.6326847e-01
  4.2497748e-01
 -1.5322243e-02
  2.3045333e-02
  1.5941210e-02
 -7.3246346e-03
  2.2369973e-01
  3.0176545e-04
  1.1935185e-02
 -9.6471697e-02
  4.8627984e-02
  1.0014262e-02
 -3.5794627e-02
 -3.0287892e-02
 -1.6440032e-02
  4.3189380e-02
 -1.2251522e-01
  5.1311246e-04
 -3.7509799e-02
  7.9616103e-03
  1.1679313e-02
 -1.5909840e-05
 -3.0516358e-02
  5.4397196e-02
 -1.1758362e-02
  4.5164075e-02
 -2.0194738e-03
 -1.4565802e-02
 -2.4144467e-02
 -5.5474127e-03
  1.3451069e-02
 -1.6790326e-03
 -6.5191589e-02
 -3.6662787e-02
  5.0873786e-02
  5.2713152e-02
 -6.7361541e-02
 -1.0986170e-02
 -1.2354136e-02
 -1.8725270e-02
 -7.1752205e-02
 -1.1589078e-01
 -2.9335603e-02
  5.4160640e-02
 -8.1051616e-03
 -4.8980773e-03
  6.8343696e-03
  3.9235450e-02
 -8.4734976e-04
  1.9075725e-02
 -2.1332001e-02
  8.3383676e-03
 -1.4615739e-02
  6.2490780e-02
  2.3502365e-02
 -8.9252478e-04
  3.4556776e-02
 -2.3406709e-03
  1.6020883e-02
 -2.8118044e-02
  4.9231790e-02
 -1.1697456e+00
  6.4955018e-03
 -8.1508914e-03
 -2.9347882e-02
  2.7360380e-02
 -2.3031168e-02
 -3.9053563e-02
  1.5528548e-03
 -1.7128880e-03
 -7.3914989e-03
 -6.1266828e-02
  1.2032026e-02
  2.6155572e-02
  1.5890606e-03
 -2.5434908e-03
 -2.3412023e-02
  1.8342339e-02
 -1.3228451e-03
  4.2843921e-03
 -3.2185367e-03
  2.8204421e-02
  2.9632694e-03
  6.6558219e-02
  7.4528471e-05
 -5.0321609e-02
  1.3917782e-02
 -1.0486207e-02
 -2.6041737e-03
 -1.9383701e-02
  5.0208722e-03
  8.0332011e-02
  4.4993949e-03
 -2.3229416e-03
  6.2820101e-03
 -4.2364872e-03
  3.4687924e-03
 -1.7478300e-02
  2.3110989e-02
  1.2852749e-02
  2.4028905e-02
  2.3779903e-02
 -4.2835385e-02
 -5.7866480e-03
  1.7648289e-02
  1.6781418e-02
 -1.7816307e-02
 -3.7783582e-02
 -1.7613171e-02
 -9.2430068e-03
  4.8639313e-03
 -1.7886952e-02
 -1.3062577e-02
 -3.0097445e-03
  1.4011539e-02
  3.7217330e-02
  2.4949765e-02
  2.5015520e-02
  5.2687963e-03
  3.6915964e-03
 -4.3284591e-02
  2.6320383e-01
 -2.8793732e-02
  2.1462550e+00
 -4.3680459e-02
 -5.1932158e-03
 -3.8322419e-01
 -2.0758681e-02
  2.2972396e-03
 -8.7196034e-01
  2.9940128e-03
  1.9142130e-02
  3.6536984e-03
  6.7140505e-02
  1.1869632e-01
 -3.5654228e-02
  1.4896069e-02
 -4.2969706e-03
 -1.5994636e-02
  3.6588185e-02
 -6.9121160e-03
 -1.0542654e-02
 -2.8412702e-02
  2.3685509e-02
 -4.8224863e-02
 -4.5724832e-03
  1.8098457e-02
 -5.4556515e-02
  1.7052934e-02
  1.2595439e-01
  5.6473707e-04
 -4.6643014e-03
 -1.7840158e-02
 -9.0766095e-02
 -4.3869432e-02
 -6.1608925e-02
  7.3389121e-04
 -5.9896708e-03
 -2.2029199e-02
 -8.9396127e-03
  1.1530324e-02
  3.4840759e-02
 -5.6083940e-02
 -5.6527905e-02
  1.1254682e-01
  5.3619477e-03
  1.4725078e-02
 -9.4296569e-03
 -3.2082333e-03
  1.2097747e-02
 -1.5892547e-01
  3.7102019e-03
 -1.8496981e-02
 -1.3511346e-01
  1.4017519e-01
 -9.1273868e-03
 -4.0411591e-03
 -8.7622511e-01
  5.3301889e-01
  4.1816484e-02
 -6.4821172e-01
  4.6831930e-01
 -4.6740983e-02
  6.5843347e-03
  9.7565347e-01
  8.5692316e-01
  2.9504709e-02
  4.2737082e-02
  5.5034324e-03
  4.5442757e-01
  5.0606199e-02
  5.7825816e-01
  8.9654336e-03
 -2.0227257e-02
  1.0147292e-02
 -3.4729347e-02
 -8.5989377e-03
  4.5716411e-01
 -3.0938250e-03
  2.6748745e-02
  2.6512496e-02
 -7.8527206e-01
 -7.8676127e-02
  5.7801527e-01
  3.3131942e-01
 -1.2581718e-02
  2.9933399e-03
 -5.8130777e-01
  1.1282229e-02
  1.4032223e-02
 -3.7625017e+00
  1.6102420e+00
  3.3351316e-03
 -1.0006594e-02
  1.3655140e+00
  2.3890184e-02
 -4.2565774e-02
 -2.9276249e-03
 -1.9781034e-01
  1.7445621e+00
 -2.0278657e-02
  1.3778040e+00
  3.4342261e-03
 -1.9773771e-01
  5.1893394e-02
 -2.3937408e-02
  5.1480323e-02
 -2.5728795e-01
  6.5542893e-03
  1.3667900e-02
  2.5164310e-02
 -1.6064523e-02
 -1.1071939e-01
  2.2045705e-02
  1.5113370e-02
 -2.6417857e-03
 -3.5573147e-02
  1.3667286e-02
  1.5613459e-03
  7.4574381e-02
 -3.2818273e-02
 -1.9003157e-02
 -1.0823790e-02
 -1.4326168e-04
  3.9197929e-02
  1.0564846e-02
  3.4472586e-03
  5.9020515e-03
  1.6133325e-02
  1.0876446e-02
  2.1601748e-03
  5.6279884e-03
 -8.1503056e-03
  1.9445375e-02
 -1.1298250e-03
  3.4770995e-02
  3.8875188e-03
 -1.3586938e-02
 -5.5531651e-02
  4.5935292e-02
  9.9948598e-03
  1.0985616e-02
  1.1293814e-02
  1.1399359e-02
  1.0277381e-02
 -8.3486652e-03
 -3.5636153e-02
  1.0188785e-02
 -1.0550317e-02
 -2.6072679e-02
 -1.0921870e-01
 -4.2345203e-03
 -6.2991962e-02
 -2.2397326e-02
  3.8617701e-04
  8.8381656e-03
 -2.0059608e-02
  2.5984066e-02
 -3.1215187e-02
  3.1977386e-04
 -1.0973341e-02
  2.2815185e-02
  8.6482633e-03
  9.6871583e-03
 -2.5200723e-02
 -3.2777868e-02
 -6.3079828e-03
  7.6586831e-01
 -1.2864423e+00
 -1.3748634e-03
  2.9214073e-03
  6.4271409e-04
  6.2259138e-03
  2.1542598e-01
 -2.5346585e-02
  7.7041908e-04
  5.2993558e-03
 -8.3062630e-03
  2.0441212e-02
  1.2118781e-01
 -2.0664087e-02
  1.0029955e-01
 -1.3689684e-02
 -5.0014141e-03
  6.0397075e-03
  7.1345836e-02
  1.8108856e-02
  2.0750415e-02
  6.4697587e-01
 -2.2451559e-02
 -2.3754084e-02
  5.5860817e-03
 -3.2373834e-02
 -1.8134777e-02
  2.7680800e-03
 -6.9525018e-03
  6.5534731e-04
 -1.5090918e-02
  1.8443793e-01
 -1.0464129e+00
  1.8842500e-02
  2.0998746e-02
  6.1976844e-03
 -9.2033058e-02
  8.9205178e-03
  3.3576023e-02
 -1.7874040e-02
  5.7294071e-03
  8.7987818e-03
  7.3391246e-05
  2.5565073e-02
  5.7759755e-03
 -2.7205942e-02
  3.4423494e-03
  4.1096751e-03
  4.4128168e-03
  1.8211236e-02
 -9.3351817e-03
 -1.7349832e-02
 -1.8547801e-02
 -1.4470227e-02
  4.3728650e-03
 -2.5131546e-02
 -2.1509999e-02
 -1.9554248e-02
 -1.4613505e-03
  6.2529400e-02
  3.9286215e-02
 -2.1744487e-03
  1.6373016e-02
 -1.2304294e-02
 -7.1875202e-03
 -4.3313630e-02
 -2.4313563e-02
  2.3307832e-02
  8.6672179e-02
 -6.9619554e-01
 -1.4687564e-02
  3.0417031e-02
  1.0656431e-02
  1.1951117e-03
  7.4608740e-03
  4.8435279e-03
 -4.2167660e-03
 -2.2818765e-02
 -2.9966019e-02
  2.8582433e-01
 -1.0518980e-02
  3.4289408e-02
  2.7017370e-02
 -8.3691021e-03
  3.5332672e-02
 -1.1316702e-02
 -3.4746923e-03
  3.6922030e-02
  2.8987365e-02
  1.0401543e-02
  9.3287885e-01
 -8.8617975e-01
 -3.2584190e-02
  3.4466559e-01
 -5.9429262e-02
  7.7972502e-01
  3.3923584e-01
  1.2228354e-01
 -2.8820267e-02
 -9.4613265e-03
  7.7839782e-03
  3.5855895e-01
  4.6766758e-02
  1.0653814e-02
  7.5339414e-02
 -4.9191136e-03
  6.2739372e-02
 -3.5670936e-02
  1.6056078e-02
 -1.7593842e-02
  5.7861291e-02
  2.5708917e-01
 -1.5996087e-02
  7.6825186e-03
 -2.4209255e-01
  3.8813647e-02
  3.7489623e-02
 -1.2996612e-02
  7.8791250e-03
  2.4796827e-02
  2.4170151e-02
 -9.5862293e-01
 -1.8561184e-02
  3.2108173e-01
 -1.3774341e-02
  2.7294829e-02
 -2.3476483e-02
 -6.0709792e-01
  3.6387369e-03
 -4.6145033e-02
  1.9438816e-02
  2.0931424e-03
  2.5669835e-03
  1.4195961e-02
  1.1466955e-02
 -2.1063901e-02
 -2.6111187e-02
 -4.4777241e-02
 -5.0125172e-04
 -7.0582129e-02
 -4.1846423e-03
  1.3734796e-02
 -2.7083165e-03
  1.3089160e-02
  2.7055236e-02
  9.5557468e-03
  7.0856768e-01
 -6.7277580e-02
 -1.0240956e-02
  1.2266837e-03
  3.3739638e-01
 -8.5225183e-01
  2.2297326e-02
  1.7693596e-01
  2.3320017e-02
 -1.2251700e-01
  3.2210911e-03
  2.5385024e-02
  1.1196930e-02
  6.7788705e-02
 -5.7084300e-03
  1.6712765e-01
  9.9048549e-03
  3.0629573e+00
  9.9510238e-02
  2.2078834e-03
  3.8211595e-02
  2.1466285e-02
  2.5122752e-02
 -3.4287050e-01
  1.1862775e-02
 -1.0707697e-03
  4.4555623e-02
 -6.6700011e-02
  5.7972479e-03
 -1.2090344e-02
  2.2850776e-02
  1.1144465e-02
  7.0102294e-03
  5.8451747e-03
 -3.1111510e-02
  2.1153297e-01
 -7.9135746e-03
 -3.2063000e-02
  6.8646143e-03
  5.9820153e-02
  5.8640033e-02
 -1.4088736e+00
 -1.1175541e-02
 -2.5293561e-02
 -2.1324752e-02
  1.3024195e-01
 -1.8259385e-03
 -6.8102159e-02
  1.5332333e+00
 -2.4413356e-01
 -3.8662646e-03
 -2.8176561e-02
 -1.5824083e-02
  5.4624975e-03
  1.8536661e-02
  3.8710862e-02
  8.1748184e-04
  7.1346894e-02
  6.2285356e-02
  4.8087272e-03
 -7.6140808e-03
 -9.5378896e-03
  5.0831293e-03
  3.2982705e-04
  7.9487361e-02
  8.8700092e-01
 -8.3672804e-01
 -7.2016102e-01
 -1.1909595e-02
  1.2459799e-02
 -1.4766437e-02
 -1.5721383e-02
  2.0370208e-02
 -3.8360812e-02
 -7.2168782e-02
  7.5127900e-02
 -4.5322819e-04
 -6.7253870e-01
 -7.7157125e-02
 -1.3188513e-02
 -6.3931774e-03
  1.6169593e-02
 -8.3242796e-02
 -1.0412808e-02
 -2.3900317e-02
 -7.1750462e-02
 -5.0056297e-02
  1.1155088e-02
 -3.8858689e-02
 -4.1512094e-02
 -3.6329990e-03
  5.5333335e-02
  4.1310648e-03
 -2.7874617e-03
  1.8201547e-02
 -3.9852834e-01
 -1.0718310e-02
  3.7761241e-02
 -1.7018372e-02
  2.4342678e-02
  4.4671842e-03
  8.7014157e-03
  1.5440678e-02
  2.7548516e-02
  4.7644982e-03
  7.8942932e-02
  1.2456589e-02
  9.1707176e-03
 -5.9328578e-02
 -1.9154539e-02
  1.6247801e-03
  3.7261348e-02
  1.9637864e-02
  9.2531359e-03
  3.8900089e-02
 -2.5587242e-02
  9.1650784e-02
 -4.7379885e-02
  2.0943010e-02
 -2.0984422e-02
 -1.4357014e-02
 -3.7496425e-02
  2.3337461e-03
 -4.8498690e-02
  4.3335107e-01
  5.3222680e-01
 -3.0600242e-03
 -3.9578849e-01
 -2.4255976e-02
 -9.2064165e-02
 -3.2771400e-01
 -5.5912617e-03
  3.1158833e-02
  2.8639880e-01
  6.5487437e-02
 -4.6752006e-02
  1.3557686e-01
 -1.1955725e-01
 -3.4980723e-01
 -1.5063259e-02
 -4.6299633e-02
  8.5912593e-02
 -4.9561486e-02
  9.6482392e-03
  8.1419051e-03
 -2.4746370e-02
 -1.0525549e-02
 -9.9484036e-03
 -1.3773797e-01
  3.2036889e-02
  7.7068312e-03
  3.6173065e-03
  3.8808387e-02
 -3.7641134e-02
 -3.2462623e-02
  6.4076948e-01
 -8.4946752e-03
 -3.1172600e-01
  3.2115108e-03
  2.1274019e-02
 -5.1649433e-02
 -1.3591388e-02
  7.5668156e-02
 -2.6438916e-01
  2.2914950e-03
  6.0563240e-02
  7.6531053e-02
  1.1291570e-03
 -1.7380102e-02
 -5.4021473e-03
  5.2454630e-03
 -1.7633455e-02
 -3.5282914e-02
 -5.3393364e-02
  9.8976362e-03
 -2.5748061e-02
  1.5449975e-02
  1.4414839e-02
 -7.3302937e-01
 -8.9493236e-03
  1.8523481e-04
 -3.3260625e-02
  1.5063043e-02
 -9.9616172e-03
 -2.4615860e+00
  8.3830827e-01
  1.0669130e-03
 -3.4545624e-01
 -5.0016221e-02
 -4.1730055e-03
  8.5812104e-01
 -1.6438201e-02
  9.0780538e-03
 -6.1286473e-01
  2.0043334e-02
 -5.1926557e-02
  2.7375776e-02
 -4.7260984e-03
 -8.6599886e-02
  7.4055879e-03
 -1.0565577e-01
 -3.4192735e-03
  2.2671690e-02
 -2.9075670e+00
 -9.8840911e-03
 -3.9092503e-02
 -1.0396693e-01
 -9.3137799e-03
  1.6052989e-02
  9.4572278e-03
 -3.3916924e-02
 -9.2336498e-03
 -1.2461125e-02
 -1.0239645e-02
 -3.6655448e-02
  3.5708228e-01
 -4.1342914e-02
 -1.5384826e-01
 -1.6894490e-01
 -1.1054179e-02
  4.8676293e-02
 -2.4013272e-02
 -2.3299988e-02
  1.1461102e-03
 -1.5479993e-02
  1.4418028e-02
 -3.0326203e-02
  1.7618036e-02
 -6.3866250e-02
 -6.6058163e-04
 -7.9452461e-03
 -1.1867852e-01
 -3.0581588e-02
  1.0795301e-01
  1.4440700e-03
  2.2104130e+00
  3.1497307e-02
 -1.4185169e-02
  1.1681296e-02
  4.1629998e-03
  3.4893041e-03
  2.1087067e-02
  1.6110819e-03
  3.0070469e-02
  8.7862555e-03
  1.3715168e+00
  1.2243029e-01
 -1.3007497e+00
 -1.0766354e-02
  7.3915725e-03
 -3.2315400e-01
 -5.1296655e-02
  1.4480829e-02
 -3.7975898e-01
 -2.1319645e-02
 -1.9849759e-01
 -8.3251903e-03
 -1.2932308e-02
 -4.0708742e-01
  7.8562656e-03
 -2.6784498e-02
 -1.1110762e-02
  3.9874641e-03
 -5.3967768e-01
 -6.2664002e-02
 -1.9469301e-01
 -1.1331563e-01
  9.7068556e-02
  2.1117108e-01
  4.5049557e-04
 -1.4959064e-03
  1.5601086e-02
  1.0034455e-01
 -5.8291561e-04
 -7.5446843e-04
 -7.8339314e-01
  1.6277385e-01
  5.1645029e-01
 -1.8225169e-02
 -6.6794202e-02
  1.8350336e-01
 -1.4327998e+00
 -7.2810948e-02
  6.7561612e-02
  1.5543414e-02
  4.5099914e-05
 -3.1265914e-02
  8.5340040e-03
  1.0594369e-01
 -3.2158844e-02
 -3.5660274e-03
  2.6511970e-01
 -1.4146645e-02
  1.1805456e-02
 -5.8546636e-02
  2.6441701e-03
  1.7473939e-01
  3.0009799e-02
 -3.1339768e-02
 -1.3810731e-02
  1.3755932e-02
 -1.2944268e-02
 -2.2576962e-02
  5.9100192e-02
  4.3616056e-02
  8.2345206e-01
 -3.2622762e-02
  3.7121490e-02
  5.9500127e-03
  5.3520566e-03
  1.7500371e-02
  6.8594064e-03
 -2.3664104e-02
  8.7172568e-02
  2.7206140e-02
  2.0768913e-02
 -1.7080964e-03
  2.9312754e-02
 -7.1824244e-03
 -2.2635125e-02
  1.4181199e-02
  9.4286175e-03
  4.5892587e-03
  6.1867568e-03
  9.1919668e-02
 -1.4169076e-02
  3.2458603e-02
  6.2564826e-03
 -2.3795109e-02
  2.3742500e-03
  4.0576197e-03
 -4.1280549e-02
  3.2670621e-02
  1.8307360e-02
  6.7168891e-01
 -9.4622552e-01
 -8.2577057e-03
  6.1692369e-01
 -1.2167158e-02
 -4.6186220e-02
  1.8914144e-01
  8.2198353e-03
  2.9795570e-04
 -4.6309046e-03
  1.5962730e-01
  2.9083961e-01
 -1.9464796e-02
 -1.6091250e-02
  2.4681592e-01
  1.4894594e-02
  1.5080434e-01
  8.9307474e-03
 -1.9243011e-02
 -5.8878638e-02
  6.2159117e-02
  8.1465123e-03
  1.6097408e-02
  3.1526391e-03
 -1.8261325e-01
  1.9768935e-02
 -2.1002658e-01
  3.3926401e-02
 -6.1834245e-03
  4.6922611e-03
  5.4598570e-01
 -7.8561008e-01
  2.6975101e-01
  9.1626551e-03
  1.4724686e-03
  1.3841692e-02
  1.5788585e-01
  3.0448785e-02
 -2.9584229e-02
  1.6961556e-02
 -2.8549729e-02
  3.5785639e-01
 -6.6730134e-02
 -5.0777335e-02
  3.2321319e-02
  2.1390240e+00
  8.7527081e-02
  1.7749447e-02
  3.0004006e-02
 -1.3740958e-01
 -4.2323731e-03
  2.0810379e-02
  7.6091014e-02
  1.5465570e-02
 -6.3711822e-02
 -3.1046135e-02
  3.1036824e-02
 -1.8924722e-01
 -1.6750451e-02
 -4.8940912e-02
 -1.9161757e-02
  5.3976530e-01
 -1.8006723e-02
 -1.9692902e-01
  5.3928856e-02
  3.7176716e-03
 -5.9590537e-02
 -1.6010100e+00
  3.9158788e-02
 -3.7011364e-03
 -1.3682513e-02
 -7.9065576e-02
  4.9161263e-02
 -3.8365666e-02
 -3.0657759e-02
 -7.8647360e-03
 -7.6491512e-02
  2.5454279e-02
  3.5481239e-03
 -1.4836121e-02
 -1.3797766e-02
 -2.2135973e-03
 -7.4827954e-02
 -1.5957615e-01
 -2.9267004e-01
  2.0655939e-02
 -1.3626359e-02
  1.7799849e-02
 -2.6981536e-02
  1.5159189e-02
 -5.2297446e-03
 -8.7322766e-01
  1.5112635e-01
  8.8176101e-01
  9.0893336e-02
 -9.7767249e-02
  1.2879318e-01
  7.0832204e-03
  1.1942047e-02
  2.0758349e-03
 -1.4908765e-02
  3.0918720e-01
 -2.3174429e-02
 -4.0456778e-03
  2.2479065e-01
 -1.3414542e-02
  1.3031457e-01
  2.3286581e-02
 -1.9636968e-02
  7.3861675e-03
 -6.5888171e-03
  5.5128261e-02
  1.0174054e-02
 -3.5509832e-02
  3.9023079e-02
 -6.8123080e-02
  1.9894021e-02
 -4.9644215e-03
 -7.1612410e-03
  2.1141952e-02
 -2.5090909e-02
  8.4832162e-01
 -4.7864757e-02
 -1.7498620e-01
 -2.0602962e-03
  1.6488004e-02
 -3.5757188e-02
  1.7889105e-02
  3.0591644e-03
 -1.7005919e-02
 -5.5034611e-02
 -3.0161862e-04
 -6.4125814e-02
 -1.5192337e-01
 -1.1246374e-01
 -7.4002892e-02
 -3.4047578e-02
 -1.7084340e-02
 -7.7840715e-04
  4.8311468e-02
  5.1335726e-02
 -4.4323438e-01
  6.1369142e-03
  1.1128482e-02
 -9.9826669e-03
 -7.5842128e-03
 -3.7477590e-02
  5.0420154e-02
 -1.0390785e-02
 -1.6892878e-02
  8.6203672e-02
  9.4469643e-01
 -1.3615672e-01
 -8.8267200e-02
 -7.2902669e-03
  8.4999567e-03
 -1.5793543e-02
  3.9428673e-03
  4.6900688e-03
 -1.0123935e-01
 -1.7947776e-02
 -3.3130307e-02
 -5.4568709e-03
 -2.1880735e-02
 -2.7923169e-02
  1.5108466e-02
 -1.0364091e-02
  2.8571958e-02
  1.5222784e-02
 -2.6135176e-02
  6.7274300e-03
 -7.0453182e-02
 -9.5037088e-02
  3.7103288e-02
 -8.6352363e-02
 -5.4684076e-03
  6.8581859e-03
  4.8344254e-02
  3.0790059e-02
 -1.3211784e-03
 -1.2028375e-01
  7.2512352e-01
 -4.0081140e-02
 -1.1885496e-01
  1.9931362e-03
 -3.7183527e-02
  5.0838292e-03
  9.9567305e-03
  3.3469703e-03
 -2.7526410e-02
 -2.9475788e-02
 -4.8075788e-02
 -6.4852819e-02
  8.2104411e-03
 -1.3738626e+00
  1.2429879e-02
 -9.3587488e-02
 -1.0657490e-02
  1.0123449e-02
  2.6554784e-01
  1.5340140e-02
 -1.3016170e-02
 -1.4935505e-01
  8.4029119e-03
 -6.6833705e-02
  6.0062767e-03
 -1.8073084e-02
 -3.3782866e-02
  2.6095837e-02
 -1.3279368e-02
 -2.8371196e-02
  7.7114630e-01
 -2.3646642e-02
 -1.6918759e-01
  1.6254401e-02
 -2.2089330e-02
 -6.4460091e-02
  5.7948239e-02
  1.4418719e-02
  6.4898771e-03
 -2.9404853e-02
 -1.9541476e-03
  1.0957013e-02
 -3.2668480e-01
 -3.7588485e-02
 -5.7446841e-02
  1.3766802e-02
  4.6194132e-02
 -1.4701135e-02
 -2.0060376e-03
 -5.3141159e-03
  6.3190162e-02
 -6.3550440e-03
 -1.2861416e-02
  7.4133561e-03
 -1.1683821e-02
 -1.0765768e-01
 -7.6542948e-03
 -3.7578385e-02
 -1.6431352e-02
  2.6819282e+00
 -1.1487795e+00
  1.1998074e-02
 -9.3004423e-01
 -2.8146746e-02
  2.6103791e-02
  1.0211630e+00
 -2.2306837e-02
 -3.6677487e-02
  1.8216982e+00
  1.6229264e-01
  9.4226968e-01
 -3.6475893e-02
  2.8064230e-02
  1.2295056e-01
  2.5366737e-02
  4.9672884e-01
  7.0425146e-04
  1.7233464e-03
  7.5396538e-02
 -1.9583968e-02
  7.0789230e-01
  1.2169526e-02
  1.5809074e-03
  2.4606273e-01
 -2.0140813e-01
  1.2312558e-01
  4.2672154e-01
 -4.4762590e-03
  4.7029972e-02
  3.5602350e-02
 -4.0581977e-01
  9.3425894e-03
  2.3730911e-02
  8.5086405e-01
  2.3624650e-03
 -5.0889079e-02
  2.5124887e-02
  1.7163376e-03
 -2.8510918e-03
  1.1483368e-02
  2.8002141e-03
  6.7791338e-03
 -5.3411755e-03
  2.9299689e-02
 -1.0129108e-01
  9.6983984e-02
  2.2708301e-02
  2.7715934e-02
  9.9001881e-03
  4.6061601e-02
 -4.5314223e-02
 -3.8391884e-02
 -1.1428438e-01
  1.1865648e-02
  4.5207929e-02
  5.7921574e-02
  1.1130091e-02
 -1.4252733e-02
  1.5512820e-03
  9.6859165e-02
 -7.2466773e-01
  3.5348754e-02
  8.4971470e-01
  5.6054637e-02
 -2.6684109e-02
  2.1108106e-01
  2.3593386e-01
  8.0115013e-03
  4.2764840e-01
 -5.9248991e-03
  4.0836343e-01
  4.1977516e-03
 -4.5113839e-02
  1.0018499e-01
  1.1048279e-02
  2.1188128e-01
  1.9065073e-02
  2.7851492e-02
  8.0230189e-03
 -9.9188434e-03
  4.7807757e-02
  4.3288586e-01
  4.0280905e-02
  3.9064303e-01
  8.7702990e-04
  1.3671574e-01
  3.3699318e-03
  9.6534472e-03
  1.8530838e-01
 -1.0436049e-02
  1.2153164e-01
  5.0044451e-03
 -1.7318664e-02
  1.8063666e-02
  4.2941540e-02
 -5.1555000e-02
 -7.6096840e-03
  2.9161766e-02
 -9.8146712e-03
 -5.7069361e-03
  2.3932564e-03
 -6.5152175e-03
 -1.3410530e-02
  2.1888901e-02
 -2.7038010e-03
 -4.1293004e-03
  2.5358798e-02
 -9.0893055e-04
  2.1626286e-02
 -2.9487599e-02
 -1.2500356e-02
 -2.1850238e-02
  7.0054613e-02
 -6.2895209e-02
  1.0896171e+00
 -1.6982338e-03
 -2.6279433e-02
 -2.1215776e-02
 -8.8402741e-03
  2.5602417e+00
 -3.3763241e-02
  8.6711705e-01
 -8.0955654e-01
  4.4576015e-02
  6.1882287e-01
 -8.1605814e-02
  4.1849321e-01
 -1.7101781e-01
  1.8140170e-01
  7.2643024e-01
 -7.4962109e-01
 -2.0781961e-01
 -9.1743308e-01
 -5.0465322e-01
  1.7079644e-01
  1.3076432e-01
 -1.1092646e-01
  4.5189917e-01
  7.1526116e-01
 -5.2871698e-01
  3.8688678e-02
 -4.0432122e-01
 -3.3969425e-03
 -4.4136596e-01
 -4.4930393e-01
  1.1382190e+00
  1.3222749e+00
  2.2791144e-01
 -1.3624587e+00
  1.6576200e+00
  7.3171733e-03
  2.0601146e+00
 -1.2882541e+00
  2.4843749e-02
  2.5547402e+00
  7.3706162e-01
  1.5773534e+00
 -2.3904067e-01
 -1.4586893e+00
  8.9638257e-01
 -2.3629303e+00
 -9.5249659e-01
 -2.0740874e+00
 -8.1540626e-01
 -2.1827991e+00
  1.2750007e+00
 -7.4960262e-01
  2.7440014e+00
  2.4473348e+00
 -1.2363631e+00
  1.8979958e+00
 -1.4863403e+00
 -8.8908374e-01
 -1.7574064e+00
 -1.4770116e+00
  5.2248993e+00
  2.1712337e+00
  2.3471839e+00
 -9.8406893e-01
 -8.9252174e-02
  4.4513974e-02
 -2.1840431e-02
  1.2205893e-02
 -4.9573064e-02
 -1.4471506e-02
 -6.4157538e-02
 -5.3161108e-03
  1.2507227e-02
  8.7293740e-03
 -5.4916065e-02
  1.8326902e-03
 -2.9846236e-02
  8.9886323e-02
 -1.3420539e-01
  8.5332274e-02
 -6.7693898e-03
 -1.3582764e-02
 -1.1072198e-01
  5.1538501e-02
  5.0905913e-02
 -9.0825371e-02
  2.5774386e-02
 -3.9449912e-02
  8.6597510e-02
  9.0239269e-01
 -5.0203737e-02
  6.5093249e-01
 -2.2988232e-02
  1.5263891e-02
  4.0468995e-02
 -1.8060948e-01
 -9.5949672e-02
 -7.6473420e-03
 -1.4449635e-01
 -5.2585345e-02
 -2.6519010e-02
 -1.0656551e-01
  1.1596858e-01
 -1.9479357e-03
 -2.1558380e-02
  2.3516344e-01
  3.7567485e-02
  1.7951176e-01
  3.6704864e-02
  1.1428823e-02
  9.5147260e-02
  1.0111667e-02
 -2.6080895e-03
  9.3046445e-01
  2.8609414e-02
  1.2645781e-02
 -6.6678248e-02
 -8.5039616e-02
 -8.8757817e-03
 -2.0968245e-02
  2.4333263e-02
  6.6844165e-01
  1.1254495e-01
  8.2844093e-02
 -3.6973792e-01
  3.8799345e-01
  1.3819052e-01
  8.7223810e-01
 -1.3749348e-01
 -2.9168639e-02
  6.6705056e-02
  6.3635275e-02
 -1.4895360e-02
  1.5311991e-01
  2.1544900e-02
 -2.1095907e-02
 -8.5410118e-02
 -1.7718274e-02
 -8.9072101e-02
 -1.3672963e-02
 -7.2889887e-02
 -5.6815300e-02
 -3.3733892e-01
 -4.0121919e-01
 -1.1185615e+00
 -4.3716617e-02
  1.1302808e-03
 -1.5834008e+00
 -3.4829524e-01
  3.1438761e-03
 -7.7819186e-03
 -9.5699588e-03
  1.0072930e-01
 -6.3960806e-02
  2.6189280e-01
 -4.9684924e-01
 -4.3612599e-01
 -4.6804252e-01
 -5.7427597e-01
 -4.8369821e-02
  2.4846774e-01
  1.1659326e-02
  1.5523313e-02
 -6.5740006e-04
  1.6257770e+00
  3.2715318e-01
  1.8529105e-01
  7.1098238e-01
  1.1659129e-01
  6.1734844e-02
 -5.7306043e-03
  9.2048131e-02
  6.8579310e-01
  1.9826622e-01
  2.1971399e-02
  7.5751264e-03
  1.8643142e-01
  6.9556475e-02
  1.4724708e-01
  5.9604101e-02
  3.9489210e-02
 -3.3726826e-02
 -1.5621996e-02
 -4.9507536e-02
  1.3708308e+00
 -2.1030731e+00
  1.9915706e+00
 -8.3560824e-02
 -2.7386320e+00
 -5.1648080e-01
  8.0708092e-01
 -1.9853939e-01
  3.1862274e-01
  6.7630829e-03
 -5.6775521e-02
  5.6452528e-02
 -6.2060613e-02
  4.5923081e-01
  1.2900021e+00
  2.5678406e-02
 -4.0134406e-01
  5.4944432e-03
  4.1172081e-01
  5.4908240e-01
  2.9593316e-01
 -2.8614011e-01
  2.0673696e-03
 -2.4796056e-02
  8.7684924e-03
 -9.9889852e-02
  1.3679267e-01
 -4.8927896e-02
 -5.2675668e-02
  3.1061398e-02
  9.3281913e-01
 -1.2457583e+00
  2.8526124e-01
  4.4899005e-01
  1.5104578e-03
  2.7613219e-02
 -2.0359576e-01
 -1.2696531e-01
  6.8034366e-02
  1.7823523e-01
 -3.6536653e-02
  5.1320028e-01
 -2.5996985e-02
  2.9605117e-01
  4.0823719e-01
 -1.9393299e-02
 -8.4359489e-02
 -3.9816760e-02
  2.1038561e-01
  3.9521745e-01
  1.5792893e-02
  3.1660479e-02
  1.5563753e-02
  7.5843252e-02
  4.2917249e-01
  2.1162823e-02
  4.1023590e-02
  3.2985404e-01
  6.2989160e-02
 -6.0654476e-02
 -5.7681257e-01
  2.3733969e-01
  1.4587988e+00
 -1.9105726e-01
  2.5522912e+00
  4.8622858e-02
 -1.1848824e+00
  1.6166855e-02
 -3.7569195e-02
 -7.1049809e-02
  7.6264197e-01
 -3.0794155e-02
 -4.4836053e-01
  1.3584991e-01
 -5.5346448e-02
  4.6626195e-02
 -3.5478228e-01
 -2.9181236e-01
  2.2351098e-01
 -3.2312208e-01
 -4.7569841e-02
  3.3350542e-02
  1.2939928e-01
  1.0507680e-02
 -5.8615193e-02
  1.2055797e-02
 -3.4457341e-02
  2.7996274e-03
 -3.4125563e-02
  1.9206387e-01
 -3.4554830e-01
  2.4046111e-01
  1.6004912e+00
  4.2161083e-01
  3.3721421e-02
  1.0137510e-02
 -2.9041084e-02
  3.5025528e-01
 -4.2699955e-02
 -4.2798515e-02
 -1.0939751e-01
 -2.9233754e-01
  1.3472259e-01
  2.1325920e-02
 -2.1298228e-02
  1.7905893e-02
 -1.7137182e-01
 -1.0678506e+00
 -1.2621187e-01
 -7.2858408e-02
 -9.0973347e-02
 -4.3275904e-02
 -1.0129847e-01
  8.3874300e-02
 -5.9544623e-02
 -4.4353195e-02
  1.4413370e-01
 -1.7951035e+00
 -2.4042308e-02
  1.1441586e-02
  1.6871285e-02
  4.0237005e-03
  8.6303256e-02
  5.6255762e-02
  6.0817234e-02
  6.6140331e-02
 -8.4460282e-01
 -3.6767896e-02
 -4.0247053e-01
 -2.9345965e-02
 -1.9392526e-02
  9.6337073e-02
  1.6749952e-03
  2.3126768e-01
 -1.6082339e-02
  1.8258144e-01
 -3.9886139e-02
 -2.0809597e-01
  1.7740838e-01
  3.5834532e-02
  1.4993303e-01
  1.2067707e-02
  1.0931641e-01
  5.5981059e-02
 -7.2559668e-03
  6.3823633e-02
  7.5143133e-03
  2.9455984e-02
 -1.3265277e-01
 -1.2981103e-02
  2.5313985e-01
  2.8257631e-02
 -1.0034736e-02
 -1.7696453e-02
 -1.7179254e+00
  1.5016979e-01
  9.4112366e-02
 -1.9669809e+00
 -5.5096745e-02
  1.0648280e-02
  1.0398922e-01
  6.8311021e-02
 -4.3145571e-02
  9.4644144e-02
  2.8190488e-02
 -2.5957003e-02
  4.7371978e-01
 -1.8371962e-01
  1.9358130e-01
 -2.0361612e-02
  3.1200552e-02
 -7.8294605e-02
 -1.1232613e-02
  5.0749470e-02
  1.6676009e-01
  2.6931539e-01
 -1.8722586e-02
 -1.8248916e-02
 -1.4074281e+00
 -2.5567478e-02
 -5.6371135e-01
 -5.9606624e-01
 -5.1214421e-01
 -1.6481884e-01
  7.2833931e-01
 -4.7191475e-02
  7.7849644e-01
 -2.2197103e-02
  1.1131921e+00
  2.5331322e-02
 -1.8890205e-01
 -1.6237658e-02
  8.9234427e-02
  4.7130758e-01
  5.9689391e-01
 -2.7766166e-02
 -3.6541916e-02
  2.8220814e-01
  6.2059653e-01
  1.5896623e-01
  4.3487709e-02
  8.6993322e-02
 -6.5409340e-02
  1.1416147e+00
  4.3080788e-02
  1.7795630e-01
  1.8155421e-01
  9.3662262e-02
  1.6088073e-01
  2.2444187e-01
  5.0619578e-01
 -1.6483759e+00
 -5.2188414e-01
  1.6645092e+00
 -2.3681514e+00
 -1.2722118e-01
  1.6636136e-01
 -1.5300624e-01
  3.4612915e-01
 -1.3722105e-01
  1.3498504e-02
  2.7606282e-01
 -8.7503411e-02
  1.5017402e-01
  2.7870750e-01
 -3.5273537e-02
  8.1899416e-01
 -2.3139304e-01
  4.1989464e-01
  5.8376562e-02
  1.3931143e-01
 -3.4834898e-01
 -7.7292681e-02
  1.1217409e-01
  1.7457711e+00
 -2.7394379e-02
  1.2580842e-01
  1.1540324e-01
  4.4047967e-02
  1.3580286e-02
  1.0521171e+00
 -3.3150589e-01
 -2.2921106e-01
  4.0064302e-01
 -1.1565559e-01
  3.1393435e-02
  1.6899927e-02
 -2.9457239e-02
  1.6029176e-01
  4.5824316e-03
 -2.3737371e-01
  1.9161116e-03
  3.6199228e-03
 -1.5950069e-02
  1.6686179e-02
 -2.9095060e-03
 -3.7210438e-02
 -7.7516109e-02
  2.0190330e-01
  3.9571777e-02
 -2.2297500e-01
  1.3148213e-02
  8.8094071e-02
 -5.0656460e-03
  2.6387438e-02
 -7.6450951e-02
 -1.5151626e-01
 -2.4349353e-01
 -3.4588147e-02
  1.5285693e-01
  7.2221363e-01
  2.0323740e-01
 -1.2050182e+00
  2.1212797e-01
 -4.0184904e-02
  7.8863837e-03
  5.3756136e-02
  3.5407707e-02
 -3.3105931e-01
 -7.2847202e-02
 -1.0622504e-01
  6.7604607e-01
  4.8056342e-02
  6.3619226e-02
  4.0078036e-02
  9.9962987e-02
  2.1665407e-02
 -8.1201931e-03
  1.8647850e-01
  4.4467509e-02
  3.1097522e-02
  1.0265097e-01
  9.1445213e-03
  1.0307537e-01
  5.6090301e-01
  9.0023484e-03
  1.6247557e-03
  1.5102948e-01
  7.4468222e-03
 -8.3369315e-02
  1.0274879e-01
  1.7160248e-02
  2.0016778e-01
  5.7875324e-02
 -1.1890376e-01
 -1.9010309e-02
 -4.0720075e-02
 -1.5931481e-02
 -1.2122202e-01
  8.8899447e-05
  9.0776935e-02
  5.3986844e-02
 -3.9573073e-02
  1.8712039e-01
  7.1302004e-02
 -1.1498754e-01
  8.3150589e-01
 -5.0795183e-02
 -3.6868788e-02
 -4.7333646e-01
 -2.7481861e-02
  1.1478087e-01
 -9.3661584e-03
  1.4031181e-01
 -3.7434315e-03
 -3.8314268e-03
 -1.9721663e-01
 -2.4017606e-02
  2.2220302e-01
  1.5819784e-01
 -6.5094098e-02
  3.9620252e+00
 -9.8919738e-03
  4.5253869e-02
 -1.1119317e-01
  1.3037385e+00
 -1.5162714e-01
  2.8157542e-02
 -9.4381861e-02
 -7.7458715e-01
  3.4772158e-02
 -4.1465300e-01
 -1.1433234e-02
  1.0606191e+00
  2.2413351e-02
 -1.1512208e-02
  2.3716022e-01
 -2.5316104e-02
 -7.1083871e-03
 -5.3238191e-02
 -1.2107975e-01
 -1.1955053e-01
 -2.4462295e-01
  1.0068705e-02
 -4.8068219e-01
 -1.1430833e-02
  5.2672874e-02
  5.8912933e-02
  1.0633771e-02
 -2.2180719e-02
 -2.9675350e-02
  5.0668043e-01
 -1.2131046e-01
 -1.1304413e-02
  1.2288182e-02
 -6.2256142e-02
  1.0230669e-01
  1.4737052e-01
  1.3797563e-02
  6.6898786e-02
  1.0482082e-02
 -1.4223342e-02
  2.3165530e-02
 -9.4090350e-02
 -5.7274127e-01
  1.1965831e-01
  7.0856675e-03
  5.1079649e-02
  7.0025893e-03
  1.0348696e-01
 -7.0947327e-02
  3.9861262e-01
  2.6981555e-02
 -1.1936581e-01
 -1.2311281e-01
  1.2031823e-02
  1.1795151e-01
 -2.1524448e+00
 -1.0710888e-01
  1.3059752e-01
 -3.6391125e-03
 -9.1951716e-01
  8.3189917e-01
  1.3209348e+00
  4.7065532e-01
  7.0880240e-01
 -2.8777162e-02
 -1.1879203e-04
 -2.3842935e-02
  7.5113691e-02
 -1.5013741e-01
 -3.4087041e-01
 -8.2608964e-03
  9.3969954e-03
 -2.5359688e-02
  5.6147804e-03
 -2.0109087e-02
  1.6307051e-01
  4.1688222e-01
 -3.3585340e-02
 -1.8113001e-01
  4.6709459e-02
 -2.0887101e-02
  1.6454694e-01
 -8.1748657e-02
  2.6882527e-02
  3.1866033e-02
 -1.3208169e-01
  8.5567283e-03
 -2.2033300e-01
 -7.5054818e-01
 -2.5977921e-01
 -8.3499439e-02
  8.1688935e-01
  1.2585783e-01
  5.6706797e-03
 -2.1252593e-01
  5.2019756e-02
  5.6350764e-05
  4.6998352e-02
  3.2975335e-02
  5.2496619e-03
  1.3458577e-01
 -1.4087953e-01
 -4.6003002e-01
 -6.8662085e-02
  4.5097715e-04
  2.3663858e-01
 -5.5503882e-02
 -1.6723779e-01
 -2.5108862e-01
  3.9788023e-02
  5.6271166e-01
  1.6675803e-01
  3.5079818e-02
  1.0770760e-02
 -1.1198693e-01
 -3.7873555e-02
 -2.2214721e-03
  5.8008067e-02
 -1.0866894e+00
  4.4539984e-02
  9.1776705e-01
  8.0697298e-01
  1.1949375e-01
 -5.9869990e-02
 -3.9452277e-02
 -2.3426985e-02
 -2.5717202e-01
 -5.4581549e-02
 -2.3676274e-02
 -1.4725059e-01
  1.6249330e+00
 -1.7018487e-01
 -8.4707895e-03
  7.7019319e-02
 -1.6511622e-03
  3.9327899e-03
 -3.8098273e-01
 -1.4298034e-02
 -6.7342029e-05
 -4.1067187e-02
 -3.8036097e-02
  1.8309354e-03
 -4.1322759e-01
  4.6697579e-02
 -9.8670028e-02
 -3.5499085e-02
 -7.4210644e-02
  1.2673832e+00
  1.4961060e-02
 -1.1115980e-01
 -4.6065631e-03
  1.7838301e-02
 -4.4764139e-02
 -3.7277419e-02
  1.6225008e-02
 -1.0360111e-01
  4.6868891e-02
  7.7762671e-02
 -5.7285320e-02
 -7.3928088e-02
  1.2090813e-01
 -1.9821860e-01
 -1.3053971e-02
 -8.6094499e-02
  1.1810242e-01
 -9.9688672e-02
  6.5615594e-02
 -1.4608523e-01
  3.8330723e-02
 -2.3244973e-01
  6.0298909e-03
 -1.3642788e-02
  1.0157575e-01
  5.8650922e-02
  5.6217313e-02
  8.1331573e-02
 -4.6584681e-02
 -6.2080763e-02
  7.0523128e-02
 -1.4701456e-02
 -6.7301802e-02
  4.3660779e-03
 -2.3145540e-02
  4.5758359e-02
  5.4796547e-02
  1.1093581e-01
 -5.4502536e-02
  8.6874999e-02
 -2.0309925e-02
 -4.4154081e-02
 -1.0544495e-01
  3.2866891e-02
  2.6489340e-02
  6.2733665e-02
 -4.0511791e-02
 -4.9205266e-02
  9.5930442e-02
 -6.0328998e-02
  2.0326398e-01
 -7.2732329e-02
  9.0332609e-03
  3.7859056e-02
 -1.1998286e-02
  9.7122557e-02
 -5.2978706e-02
 -1.5239947e-02
  4.3428093e-02
 -1.2564291e-01
 -1.0056940e-01
  6.9223769e-02
 -8.0249824e-02
  2.9616281e-01
  1.8935561e-02
 -2.7543616e-01
 -9.5157467e-02
 -9.9061228e-02
 -6.5458499e-02
  9.0874424e-03
 -1.3808003e-01
 -2.2529712e+00
  1.8395357e-03
 -2.5076565e-01
  2.6873664e-03
 -8.4793814e-02
  8.4972993e-02
 -1.5814933e-01
 -7.4773477e-03
  2.8323149e-03
 -5.4182950e-02
 -1.6181651e-01
  2.5238734e-02
  2.7402893e-01
  9.7483523e-02
  1.9081971e-01
  4.1620996e-02
  1.4282326e-01
 -7.2045714e-02
  1.9882220e-01
 -4.6411803e-01
  1.7667177e-01
  8.5589528e-01
 -2.0918481e-02
  3.6628637e-01
  1.0265901e+00
  7.5733066e-02
 -2.7392497e-02
 -1.1875410e-01
 -3.3921096e-02
  4.1946374e-02
  2.1463120e-02
  7.8681402e-02
 -7.7620625e-02
 -1.0151428e-01
  7.7660061e-02
  9.6191037e-03
 -1.8696664e-02
 -5.4744057e-02
 -7.2048590e-02
 -1.2616444e-01
  6.0267356e-04
  1.8235181e-01
  1.5436039e+00
 -4.1640568e-01
  8.9558307e-03
 -1.9528082e-01
 -9.2831947e-02
 -3.1548314e-02
  1.4320660e-01
 -5.8823425e-02
 -1.0441810e+00
 -1.2611452e+00
  1.5828207e+00
 -9.1694295e-01
 -5.6562051e-02
 -2.5308890e-02
 -3.4125719e-02
 -7.7936435e-03
 -1.1500495e-01
  1.9458291e-03
 -2.1914337e-02
  9.8573096e-02
 -1.5648073e-01
  1.2744777e-02
 -2.4674062e-02
  1.0613958e-01
  1.0979476e-02
 -2.2168437e-01
 -2.7368892e-02
  3.1146269e-02
 -5.1555916e-04
  9.4658643e-02
 -1.9144988e-01
 -1.7502485e-01
  4.4145202e-03
 -1.3835569e-01
  5.0204806e-02
  7.4205678e-03
  3.1095643e-02
  8.2315788e-02
 -1.6477066e+00
 -1.7230009e-01
 -5.5751628e-01
 -2.9007816e-01
  2.7840257e-01
  1.3725919e-01
  4.9881719e-02
  2.3220673e-01
  6.4062193e-02
 -1.3656291e-01
  9.7876579e-02
  3.1011099e-01
  1.4457065e+00
  1.3161778e-01
  3.0054182e-02
 -9.5891170e-02
 -1.6931471e-01
  1.7216933e-01
  3.6494534e-03
  2.9104164e-02
 -5.9579931e-02
  3.5192353e-01
 -2.0106532e-01
  1.8052083e-02
  5.7964388e-02
 -1.4391826e-02
 -4.5305155e-02
  5.9660170e-02
 -2.7232405e-02
  1.2041762e-01
 -7.5080007e-01
 -8.3717823e-02
  5.0263535e-03
  1.5231636e+00
 -3.1634586e+00
  1.1324457e-01
  2.9942390e-02
 -3.3132154e-02
  2.3951361e-02
 -1.7309865e-02
 -7.7056062e-01
  7.3006384e-02
  1.8283298e-02
  1.1295666e-02
 -2.1467496e-01
 -4.6105329e-03
 -4.2156726e-02
  5.7214946e-02
  1.6971138e-01
  1.2623994e-01
 -8.5719191e-02
 -7.2936327e-03
 -3.9363625e-03
 -7.7503912e-02
 -1.1134875e+00
 -6.0497527e-03
 -9.2370892e-03
 -8.8279709e-02
  1.0343722e-01
 -2.3054776e-01
  2.0996869e-01
  5.4270364e-03
 -3.8591053e-02
  3.9352977e-01
  5.8136087e-02
 -1.7493881e-01
 -1.1615549e-02
 -1.9361064e-02
  3.4900263e-01
 -6.7832656e-02
  3.0158147e-01
 -4.4993140e-02
 -4.3703467e-02
  1.7627029e-01
 -5.4092646e-02
  7.1407336e-01
  2.8336441e-02
  1.4725629e-02
  5.7248781e-03
  1.3148852e-01
 -4.9839381e-02
  5.5681340e-02
 -4.8487991e-02
 -7.1593300e-02
  1.3562205e-01
 -1.8514529e-01
  1.3899809e-01
 -1.6942582e-01
  5.7026651e-02
  1.5577543e-01
 -5.1037812e-01
 -6.5521640e-01
  4.1348863e-01
 -4.0353956e+00
 -4.9447671e-02
  5.4480541e-02
  1.4295923e-02
  2.2228666e-02
 -2.7237846e-02
 -8.2505487e-02
 -4.4281691e-02
 -3.7684616e-02
  1.4926174e-01
  3.1609473e-01
 -3.6508518e-01
  5.1135410e-02
 -1.5374611e-01
  4.3852959e-04
  1.1944922e+00
  4.1994613e-02
  1.3611110e-01
 -5.0788641e-02
  3.5481483e-02
  1.4986439e-01
  9.8784361e-03
  1.0492868e-02
 -3.6327679e-02
  2.0779738e-01
  9.9175759e-03
 -5.4828033e-02
  3.9885167e-02
 -1.0056650e-01
  3.8426526e-02
  1.5055272e-01
 -6.3696392e-02
 -5.2806288e-02
  4.4387307e-02
  4.7299813e-02
  2.1557739e-02
  1.0902680e-01
 -9.6571045e-03
  7.1606211e-02
 -1.0228152e-02
  6.7319624e-02
  2.6340970e-01
  5.9122261e-02
  1.1317091e-01
 -2.8260741e-02
  4.3128915e-02
  5.9991297e-03
 -7.8665249e-02
 -6.7236632e-02
 -1.5306681e-02
 -4.8443887e-02
  5.8077276e-02
 -2.7139669e-02
  1.2587231e-01
 -9.7387895e-02
 -7.4418116e-01
  7.2624218e-01
  1.6066359e-01
 -1.7020772e-01
  9.1064131e-01
  2.0685883e+00
  3.5725468e-01
 -1.4351932e+00
 -1.2465189e+00
  8.6374778e-01
  2.6138270e-01
  8.3376163e-01
  5.6620961e-01
  1.1348078e+00
  2.3379332e-01
 -2.6092559e-01
  1.1988671e+00
 -5.3536916e-01
 -1.0506532e-01
 -8.4005833e-01
 -8.0064440e-01
  4.9194167e-03
 -4.2212126e-01
 -1.4333782e+00
 -3.8396204e-01
  8.0707830e-01
  1.1041161e+00
  4.6434736e-01
 -7.1087062e-02
  6.4199144e-01
 -3.1266865e-01
  4.4948491e-01
  1.2441699e-01
 -1.6656275e+00
  2.0444674e+00
  1.8053962e+00
  2.1155257e+00
 -1.3218302e+00
 -2.2819951e+00
  9.9144191e-01
  1.5523738e-01
  3.3659525e+00
  2.1029272e+00
  2.1541703e+00
  1.5914446e+00
 -9.3427487e-02
  1.6527460e+00
 -5.1763803e-01
 -9.1823131e-01
 -1.6392983e+00
 -2.1289265e+00
  4.6567619e-02
 -2.2813953e-01
 -2.6049657e+00
 -7.2756284e-01
 -1.5931606e+00
  1.3540181e+00
  1.1831052e+00
 -6.2292469e-01
  9.8782790e-01
  3.7054530e-01
 -2.4961905e+00
  6.9824353e-02
 -2.8984451e-01
  6.8436062e-01
 -4.3164652e-02
 -3.8129845e-01
 -2.6889663e-02
 -5.3213451e-02
 -4.4895816e-01
  1.5407927e+00
 -3.5923887e-03
  7.8722350e-02
 -5.5177295e-01
 -1.0465117e+00
 -3.3089367e-01
 -3.0542478e-01
 -2.2238982e-01
 -5.7041690e-02
 -1.4490853e-01
 -1.2341610e+00
  5.8428593e-02
 -4.1158289e-02
  1.5530153e-02
  8.8940084e-02
 -3.2087326e-02
  1.1531482e+00
 -9.7880699e-02
  3.0042374e-01
  1.9632551e-01
  1.0302637e-02
  1.5647704e-02
 -9.2476085e-02
  2.0516858e+00
  2.3349419e-01
  1.2740064e-01
  1.4569712e-01
  9.9620573e-02
  8.1669438e-01
 -1.4389800e+00
 -1.7072689e-02
 -5.9043601e-02
 -2.9799625e-02
 -2.9121820e-02
 -9.8875254e-02
  2.6057821e-03
  4.8778158e-02
 -3.0141447e-02
  2.1078214e-02
 -2.7329406e-02
  1.9866180e-02
  1.2099811e-02
 -2.1745542e-02
 -2.8348085e-02
 -3.7449512e-03
  2.0492205e-02
 -1.2996669e-02
  5.6575887e-02
  1.8018045e-02
  1.3777502e-02
 -3.2306317e-02
  6.0310119e-01
  6.3381952e-01
 -4.3496445e-02
  6.5276332e-02
  4.4666100e-02
  3.1522457e-02
 -1.4118339e-03
  3.4420565e-02
  3.6950424e-01
  1.2268824e-02
  2.9200417e-01
  1.3547552e-01
 -4.7993533e-02
  7.4299449e-01
  5.2579629e-01
 -2.0688019e+00
 -2.6021171e-01
  9.4717853e-03
  4.9246741e-03
 -1.5642498e-01
 -5.7675891e-02
 -1.3743898e-01
  9.1068693e-02
 -6.5183930e-02
 -2.0687154e-01
  4.7379963e-02
  1.0866912e-02
 -6.3864261e-02
  2.9657052e-03
 -4.9511213e-02
  2.2675734e-02
  1.2852047e-01
 -1.7847171e-03
 -2.3066387e-02
 -1.2213512e-02
 -5.8149900e-03
 -4.7558609e-02
 -6.9825912e-01
 -5.2995622e-01
 -4.7867674e-02
  3.4490768e-02
  5.8759134e-03
 -7.9773497e-03
  6.6253823e-01
 -4.7959849e-01
 -1.0273618e+00
 -1.0838117e-01
 -5.1927239e-01
  1.5942621e-01
 -2.7354497e-03
 -6.4409876e-01
 -3.7006566e-01
  4.6214309e-01
 -2.9026505e-01
 -9.3352005e-02
  6.1599857e-01
  1.0896051e-01
 -5.9331322e-01
 -2.7766401e-02
  1.3030013e-01
 -8.7848389e-01
 -5.8414496e-02
 -3.1564111e-01
 -5.8812582e-01
 -1.2832625e-01
 -1.4186582e-02
 -2.4282331e-02
 -8.5160643e-02
 -1.2697051e+00
 -2.6142919e-01
  3.5906131e-03
  6.4979838e-03
 -1.2955569e-02
  1.7051516e-01
 -8.3265476e-02
 -2.8775203e-01
  1.1922857e-02
  2.6999921e-02
  7.1820119e-05
  7.1037799e-01
  8.7075102e-01
  4.0684808e-02
  2.2892889e-02
  3.2215971e-02
  1.2086122e-01
 -2.4300060e-01
 -7.6007523e-02
 -1.1183716e+00
 -1.2389308e-02
  2.0350525e-01
  5.3752433e-03
 -1.2812934e+00
 -3.7460437e-03
  1.6806185e-01
 -3.0268002e-01
  1.6152650e-03
 -1.1859866e-01
 -1.2733767e+00
  4.7201339e-02
 -1.2414652e-01
  4.1554186e-02
  5.8050029e-02
 -2.7613280e-02
 -5.2946016e-02
  1.8362782e+00
  5.9617531e-02
  1.9059297e-02
  1.8498598e-03
  1.7340811e-02
  9.9388701e-01
 -1.4177046e-02
 -1.1652594e+00
 -2.0939955e-02
  1.9772902e-02
 -2.1708174e-02
  6.1705545e-02
  2.4105902e-01
  5.1980063e-02
 -4.7050846e-01
  9.3103938e-02
  1.3612942e-01
  2.4255459e-01
  1.3631430e+00
  7.1718633e-01
 -1.7633997e+00
 -2.6928747e-02
  5.4649520e-01
 -2.2896893e+00
 -9.1802679e-02
 -2.8850704e-01
 -1.4297808e-02
 -1.2325799e-02
 -3.3274725e-02
  3.4324636e-03
  1.6594579e-02
 -3.6762252e-02
 -1.0443355e-01
 -5.9080109e-02
 -1.2005385e-02
 -4.4035446e-02
  5.1357996e-02
 -2.7030268e-01
 -1.3219171e-02
 -5.3655338e-03
 -9.0685878e-03
 -1.4262283e+00
 -3.9511627e-01
  1.2393258e+00
 -7.3396193e-04
  1.7581459e-02
 -1.2489620e-02
 -6.4427340e-01
  2.0770150e-01
 -4.6201000e-01
  7.1126809e-03
  6.3654885e-02
 -2.0574389e-01
 -8.6138085e-02
  3.0441980e+00
  7.9862314e-01
  6.4251882e-01
 -1.0301450e+00
 -9.7118735e-02
  8.5101628e-01
  3.1644636e-01
 -4.1496018e-01
 -4.4546302e-02
 -4.0538095e-02
 -2.4116461e-01
 -1.3320483e-01
 -5.8200884e-01
  1.3294063e-03
  2.7012620e-02
  3.9871976e-02
 -3.9875722e-03
 -1.3943554e+00
 -2.5532946e-01
 -3.7164504e-03
  1.9556112e-03
  1.2038851e-03
  1.3629769e-01
 -3.4672555e-02
 -1.2221765e-02
  2.5020957e-01
  2.8838336e-01
  1.7774103e-02
 -2.6778344e-02
 -2.3266734e-01
 -1.1155365e+00
  1.1012582e-01
  5.7572013e-01
  7.1398482e-02
  9.1974825e-02
 -2.5673997e-01
 -7.3986459e-01
  6.4672452e-01
  1.5966549e+00
 -1.0870690e+00
  5.5252355e-02
 -5.1712531e-01
  9.2057914e-01
 -5.2178550e-01
 -2.7254018e-01
  5.3882420e-02
 -8.4877789e-02
  1.6701590e+00
  2.1425402e-02
 -2.1322691e-01
 -1.4514459e-03
  1.2452191e-03
 -1.4182306e-02
  1.6487271e-03
  4.5375499e-01
 -2.2194361e-02
 -1.0550644e-02
  4.5794384e-03
  4.8423554e-03
  8.2561308e-01
 -1.1114311e-02
 -8.8630503e-01
 -4.4714576e-03
  2.1340191e-02
 -1.3654079e-02
  1.7111161e+00
  3.4539303e-01
 -1.2518130e-01
  5.2320123e-01
  8.6319730e-02
  7.2064591e-03
 -1.9855273e+00
 -1.3732558e+00
 -4.5490834e-01
 -4.6278545e-01
 -6.5092939e-01
  2.5005502e-04
  2.1932128e-01
  3.3676627e-01
 -5.5558306e-01
  5.4722253e-02
  2.3309670e-01
  3.2265849e-02
 -1.1193947e+00
 -2.9475650e-01
 -4.9871285e-03
  1.4258222e-02
  1.0767537e-03
 -3.9014529e-02
 -2.1785592e-01
  5.5014199e-01
 -1.6712420e-01
 -2.4171101e-03
 -3.9553236e-02
  6.5708093e-02
  1.0778085e+00
 -3.4762353e-01
 -1.1204202e+00
  1.3872227e-01
 -5.8954707e-03
  4.5628164e-02
  1.9796331e-01
 -9.1750413e-01
 -9.5854342e-01
 -6.7123342e-01
  3.2088611e-01
 -2.7287523e-03
 -7.6002270e-01
 -7.1724254e-01
  9.1976452e-01
 -1.7812014e-02
 -3.2000458e-03
 -2.5973754e+00
  1.7777665e+00
 -1.6477056e+00
 -5.8279526e-01
  1.3029637e+00
  1.6880338e+00
 -4.3190792e-01
  1.7786127e-02
  1.0917365e-02
 -4.6745554e-02
 -2.0083752e-02
 -7.0268758e-02
 -3.8318753e-01
 -1.9555178e-02
  2.8532046e-01
 -3.3632502e-01
  1.0976781e-02
 -1.2378205e-01
 -9.0720989e-03
  7.7950947e-02
  1.1670027e+00
 -5.1376946e-02
 -1.0997337e+00
 -1.7582072e-02
  2.5126094e-03
 -4.5632757e-02
 -2.1040480e+00
 -1.5353705e-01
 -1.1461678e+00
 -3.7533212e-01
 -1.6652664e-02
  2.1867881e+00
 -4.4911927e-01
 -4.1027567e-01
  2.6137314e-03
  2.2802992e-02
 -5.1476490e-02
  2.1704167e-01
 -7.9058878e-02
  2.0855768e-02
  1.2545747e-01
  6.5756485e-02
 -3.1443890e-02
  1.1499979e-01
 -2.1560971e-02
 -2.2195257e-02
 -1.2763534e-01
 -2.3312192e-02
  1.0390506e-02
  5.9657045e-02
 -1.6849654e-02
 -1.3870898e-02
 -4.2729769e-02
 -1.8791169e-02
  1.1664774e-02
 -7.5855404e-01
 -2.0148417e-01
 -1.0444362e+00
 -4.8063748e-02
  1.5030205e+00
  4.5549460e-03
  8.6417687e-01
 -9.8230556e-02
 -2.6095834e-01
 -1.2471901e-02
  4.1147824e-02
  5.1972240e-01
 -1.9685018e-01
 -1.5098573e-01
 -1.7468126e+00
 -7.7337652e-01
  4.2252946e-03
 -3.0702589e-02
  6.5422350e-01
 -7.4957758e-02
 -1.0566371e-01
  2.5279339e-02
  9.3500286e-02
 -1.2736668e-01
 -3.3244523e-01
  9.7074911e-02
 -2.6958562e-02
  2.5551761e-02
 -2.5079888e-01
 -5.0307468e-02
  1.2659737e+00
  1.5341084e-02
  2.0051740e-02
 -2.9825760e-02
  2.9164376e-03
 -4.0730564e-03
  1.1163498e+00
  1.5115968e+00
  1.0682471e+00
 -3.0266601e-01
  8.5538596e-02
  8.8607043e-04
  5.0455779e-01
  1.0255568e-01
 -1.2036590e-01
 -7.3855206e-02
 -3.6378812e-02
  2.1273525e-02
  1.7410355e+00
 -2.3003116e+00
 -8.7305605e-01
 -1.0232385e-02
 -6.6279542e-01
  1.1194987e-01
  2.7967614e-01
 -2.0924427e-01
  1.1229504e+00
 -8.7296702e-03
  1.9482571e+00
 -2.8527796e-01
  8.5849279e-01
  7.1856654e-01
 -2.0980699e-01
 -1.2757409e-01
  3.3501410e-01
 -1.5435772e-01
 -2.9501978e-01
 -2.4627507e-01
 -3.6827844e-02
 -1.8190775e-02
  3.4584138e-03
 -8.0557100e-02
 -2.9041070e-01
  1.6178778e+00
  3.0737123e-01
 -3.5574377e-01
  8.4960246e-03
  2.4584064e-02
  1.6812825e-01
 -1.6767588e+00
 -1.9328992e-01
 -1.5220288e+00
  1.0102927e-01
 -1.6075365e-03
 -5.0623906e-01
  3.5969120e-01
  1.5391010e+00
 -1.6914389e-01
 -3.9703604e-02
 -4.8659772e-02
  2.0781152e+00
  1.3588567e-02
  2.2046560e-02
  3.3253220e-01
  1.7258795e-03
 -4.8930791e-01
 -1.3972704e-01
  1.8682240e-01
  3.2173486e-03
